Out 0.28883 0.28005 0.027695 -0.17605 0.0054297 -0.010397 -0.040707 -0.021545 -0.045544 0.073939 -0.076983 0.027561 -0.028625 -0.014963 0.016291 -0.046112 -0.048747 0.36917 -0.012009 -0.25346 0.010188 -0.034697 0.0084463 0.15864 -0.33113 -0.035538 0.30709 0.08739 -0.1247 -0.023711 -0.11094 -0.10021 -0.030042 -0.11968 0.19013 0.13157 0.11127 0.22034 0.033116 0.014425 0.16544 -0.015903 0.12233 -0.0047628 -0.13344 -0.29327 0.12592 -0.046151 -0.098794 -0.017481 -0.0021299 0.10017 -0.116 0.063855 -0.14847 -0.16505 0.1004 -0.018636 0.071064 0.12061 0.10105 -0.063863 0.1518 -0.044002 -0.032898 0.085327 -0.061321 -0.028351 0.13925 -0.18633 0.028261 -0.041618 0.08639 0.052882 0.16056 0.1736 -0.15892 -0.11505 -0.01744 0.008961 0.15982 0.088629 -0.04172 0.024713 0.30286 -0.17408 -0.14427 -0.17688 -0.081031 0.036937 -0.22123 0.23738 -0.011404 -0.12835 0.037837 -0.044012 -0.12135 0.13246 0.10529 0.073202 
of 0.27555 0.26917 0.37348 0.029455 -0.092511 -0.20472 0.30567 -0.015369 -0.29178 0.014624 0.30856 -0.60082 -0.30181 0.16696 0.16127 0.10366 -0.32253 0.053493 0.14955 -0.010042 0.22134 0.27667 -0.34871 -0.20089 -0.19081 -0.39521 0.3299 0.072359 -0.24537 0.024744 -0.3417 -0.16283 -0.4642 0.04246 0.33441 0.057984 -0.24832 0.42502 -0.28979 0.085812 0.33004 0.23319 0.34237 -0.28192 0.075815 -0.2499 0.072126 0.084461 -0.1493 0.39986 0.57048 0.16848 0.17306 -0.026338 -0.099682 -0.17129 0.31254 -0.10927 0.034362 -0.29799 -0.087713 0.27156 0.14705 -0.36462 -0.19831 0.14951 -0.2172 -0.3588 -0.025881 -0.33298 -0.0036713 0.36872 -0.0099905 0.17545 0.029972 0.21372 -0.27685 -0.31061 0.054398 -0.023432 0.271 -0.16352 -0.017689 0.079296 0.59694 -0.36991 -0.097223 -0.19228 0.019334 -0.31277 -0.22081 0.017788 0.18549 -0.32588 -0.19302 0.22911 0.22479 0.12109 0.38118 0.1621 
this 0.32499 0.26833 -0.31497 0.26728 -0.014474 0.25516 0.63813 0.20505 -0.32 0.45416 -0.29378 -0.13506 0.11621 -0.2244 -0.15766 0.10403 0.06626 -0.5292 0.19582 -0.024383 -0.17764 0.42368 0.38482 0.084167 -0.78031 -0.59999 0.64094 0.10488 -0.18298 -0.019971 -0.14004 0.22333 -0.09939 0.00079752 0.083593 0.45587 0.54978 0.38909 0.012423 -0.069243 0.15552 0.098039 -0.064434 -0.64757 -0.36451 -0.53313 0.20244 -0.12101 -0.10885 0.18829 0.64686 0.069706 0.21748 0.072395 0.24373 -0.32142 0.33635 0.16383 0.72626 -0.15541 -0.12712 -0.046293 0.022784 -0.14581 0.14893 0.10861 -0.4881 0.23348 0.0098585 -0.4803 -0.42756 -0.009542 -0.080759 -0.42426 0.082247 0.63759 -0.20335 -0.0091706 0.023303 -0.24318 -0.081243 0.22832 0.088079 -0.11069 0.14646 -0.3542 -0.89459 -0.35479 0.0022092 0.014221 -0.26239 -0.010464 -0.56526 -0.3797 0.0054689 0.15684 -0.010128 0.18485 0.41503 0.88225 
world: 0.55478 0.76466 -0.06611 0.095238 -0.021053 -0.43503 -0.18312 0.069264 -0.0036872 0.62427 -0.27827 -0.084941 -0.096297 -0.13742 -0.33272 -0.075558 0.19791 0.53916 0.040931 -0.025288 0.037332 0.25697 -0.035578 -0.39927 -0.10862 -0.21666 0.31124 -0.33343 0.0034202 -0.35244 -0.18962 -0.034494 -0.19927 -0.48973 -0.074726 -0.20981 -0.37054 0.016385 -0.046889 0.09403 0.59958 -0.029404 0.53291 -0.1309 0.059996 0.041035 -0.058305 0.14729 0.19189 0.11481 0.19405 -0.30205 0.49944 0.20975 -0.17932 -0.055353 0.14661 -0.053583 -0.15787 -0.046351 -0.22191 0.039901 -0.11709 -0.53729 -0.43127 -0.11238 -0.3948 -0.0022257 -0.24413 -0.35467 -0.13578 0.067684 0.2094 0.27623 0.15008 0.65731 -0.08129 -0.30593 -0.059209 0.065187 -0.0076893 0.2687 -0.0019972 -0.091026 0.21169 -0.31991 -0.34409 0.091744 0.060021 0.046193 -0.095677 0.20576 -0.14503 -0.01133 0.1642 0.075882 -0.32035 0.15943 0.21001 0.14013 
Visitors 0.24731 0.51527 -0.11234 0.24748 -0.010709 -0.18109 0.22686 -0.43421 0.18556 0.30992 0.052953 0.1346 -0.26148 0.013162 0.085571 0.21245 -0.20901 0.11897 0.045617 -0.36968 -0.054342 0.1112 -0.061194 0.048396 -0.66717 0.19425 0.00057265 -0.20278 0.27814 0.12016 0.071305 -0.025146 -0.2665 -0.13867 -0.03558 -0.010882 -0.11497 -0.020683 -0.33502 0.3975 0.57485 0.07501 0.42549 0.029842 0.029355 -0.52078 0.10493 0.1123 -0.025309 0.39141 -0.032929 -0.23413 -0.022595 -0.27275 -0.25738 0.042765 -0.17954 -0.14486 -0.26306 -0.12778 -0.26479 -0.033108 0.35329 -0.38673 -0.39172 0.25246 -0.26637 0.12778 -0.0090571 -0.256 -0.12678 0.081998 -0.12668 0.36555 0.24172 0.32479 0.21981 0.014777 -0.089846 -0.21051 0.16544 -0.089516 0.14741 0.18069 0.79328 -0.11364 -0.30511 -0.038875 0.025046 0.44678 0.21989 0.19124 0.15953 -0.027992 -0.11653 -0.20914 0.15362 -0.14808 0.017683 0.37156 
trying 0.32783 0.35223 -0.0083586 0.091186 -0.053615 0.41117 -0.21685 0.49871 -0.14723 0.4325 -0.28279 -0.39331 -0.32522 0.76447 -0.036357 -0.15221 -0.37717 0.99418 0.5666 -0.80422 0.34951 -0.68817 0.12552 0.57442 0.18015 0.36311 0.031355 0.46114 0.076482 0.0008623 0.00029089 0.18818 -0.19308 -0.19925 -0.20982 -0.22665 -0.17513 0.14614 -0.38513 0.36626 0.27621 0.06268 -0.23473 0.029366 -0.12606 -0.49951 -0.09067 -0.10084 -0.26934 0.18806 -0.05546 -0.36983 -0.51961 0.20075 -0.35676 -0.46851 0.021731 -0.049722 0.36701 0.45752 -0.26089 0.18946 0.37826 -0.29356 -0.19113 0.050066 -0.20865 -0.52781 -0.11407 -0.25683 0.071643 -0.31331 -0.1177 0.11497 0.13323 0.13298 -0.37495 -0.20417 -0.46934 -0.34159 0.484 0.10481 0.45928 0.082381 0.781 -0.32162 -0.46529 -0.4702 0.14218 -0.089031 -0.46094 0.52078 -0.061524 -0.54624 0.16739 -0.64022 -0.18916 0.38282 0.196 -0.023911 
out 0.61786 0.59901 -0.094043 -0.33158 0.13184 0.11139 -0.084465 -0.14444 -0.043975 0.19998 -0.14416 -0.064864 -0.082905 0.13932 0.063345 -0.40125 -0.30587 0.64053 0.035532 -0.36687 0.26278 -0.057573 -0.06381 0.48778 -0.083761 -0.28447 0.81112 -0.024707 -0.33366 0.086451 -0.12193 -0.1364 -0.52959 -0.15637 0.24111 0.26774 -0.00050487 0.48594 -0.18659 0.32382 0.10506 0.01664 0.18719 0.059568 -0.32789 -0.82272 0.23841 -0.42935 -0.12941 -0.32515 -0.079212 -0.16495 -0.49302 0.15304 0.077561 -0.026435 0.27185 0.045129 0.13602 0.078316 -0.11213 -0.13583 0.40347 -0.14238 0.049399 0.34071 -0.039839 -0.1039 -0.18826 -0.46257 0.16632 -0.0046818 -0.0040241 0.27268 0.28392 0.3493 -0.29342 -0.17263 0.011262 -0.022546 0.3934 0.24498 0.22802 -0.26817 0.53589 -0.081232 -0.16979 -0.091349 -0.24346 0.14205 -0.47864 0.23068 -0.064896 0.061103 0.14385 -0.069442 -0.39023 0.41701 0.15089 -0.079903 
the 0.41996 0.21605 -0.080327 -0.26061 -0.15863 -0.13652 0.28767 0.11638 0.056576 0.43225 0.019498 -0.38656 0.10507 0.06606 0.063608 -0.27746 -0.052249 0.12188 0.0013482 0.033129 0.31715 0.47338 0.039942 0.10324 -0.40719 -0.25869 0.18701 0.084403 -0.077885 -0.18532 0.010167 -0.15701 -0.24186 0.1948 0.068978 0.097353 -0.020522 0.56417 -0.11083 -0.07334 -0.056129 0.26104 0.23817 -0.40857 -0.20303 -0.50517 0.14966 -0.027515 -0.16704 -0.034194 0.4034 0.20749 0.12069 0.13007 -0.044473 -0.068655 -0.10989 -0.36585 0.07597 -0.21193 -0.23891 0.13444 0.31518 -0.33603 0.2245 0.10562 0.059261 -0.13623 0.17691 -0.40047 0.4145 0.49076 -0.17014 0.14222 0.23081 0.14495 -0.4421 -0.17212 0.15647 -0.10951 0.22567 0.14335 -0.19562 -0.083648 0.76349 -0.080705 -0.50514 0.044602 -0.12216 -0.082043 -0.041625 -0.034647 -0.19084 -0.093705 0.032966 -0.28869 -0.037883 0.13958 0.39412 0.17481 
Space 0.27148 0.21664 0.11573 0.11087 -0.046167 -0.058652 0.025123 -0.19845 0.042906 -0.052507 -0.11077 0.079646 -0.035963 -0.19543 -0.047524 -0.015566 -0.14914 -0.084397 -0.17016 0.18228 -0.078548 0.22791 0.17364 -0.15104 -0.50584 0.27622 -0.019535 -0.072625 0.066789 -0.11673 -0.14942 0.24163 -0.17521 -0.3398 0.087975 0.096613 -0.2264 0.017439 -0.072163 0.22397 0.51745 -0.12695 0.30289 -0.135 0.30597 -0.36275 -0.14051 0.046038 -0.093495 0.1737 0.14032 0.074577 0.18094 0.042873 -0.50159 -0.12965 -0.027366 -0.23828 -0.13132 0.091589 -0.31666 -0.043478 0.17829 -0.20277 -0.19767 0.12539 -0.32601 -0.050529 0.43681 -0.15696 -0.061373 0.18472 -0.081524 -0.052191 -0.03435 0.19363 -0.018579 -0.27505 -0.089435 -0.21491 0.15669 0.074228 -0.18222 -0.032449 0.40075 -0.3797 -0.2441 -0.1227 -0.11335 -0.089354 -0.051839 -0.22229 -0.043439 -0.25962 -0.073004 -0.031206 0.15536 0.32779 0.052856 0.22394 
Pod 0.074645 0.11994 0.41185 0.40213 -0.10823 -0.15541 -0.22024 -0.18642 -0.26482 0.027437 -0.0751 0.037134 0.14741 -0.070098 0.032932 -0.21997 -0.23859 0.15766 -0.2139 -0.13892 0.20116 0.14722 -0.030024 0.03889 -0.32774 0.21743 0.039675 0.15504 0.1597 0.054798 -0.021334 0.34233 -0.16921 -0.0392 0.3959 0.19587 0.38569 0.11605 -0.15807 -0.064009 0.47098 -0.23181 0.088337 0.12944 -0.15666 -0.39068 -0.1167 0.20412 0.05815 0.04029 0.10445 0.087772 -0.24232 -0.034361 -0.25419 -0.11258 -0.24769 -0.23564 0.25377 -0.11314 -0.58878 -0.20692 -0.019314 -0.026845 0.10028 0.083688 -0.2225 0.28865 0.43902 -0.30514 0.034441 0.15953 -0.15099 0.10137 -0.02643 0.33243 0.045492 -0.083522 -0.089078 -0.45524 0.23988 0.019756 0.17209 0.1601 0.23324 -0.15168 -0.32967 -0.40918 -0.031971 -0.29996 -0.1705 0.34233 0.021658 -0.15404 -0.2726 -0.20141 0.067539 -0.027894 -0.070416 -0.18892 
at 0.50112 0.39866 0.080267 0.079053 0.032858 0.38168 0.13232 -0.31145 -0.037523 0.044604 0.25998 -0.016006 -0.11698 0.052351 0.0092059 -0.18908 -0.39997 0.32577 -0.26517 -0.20984 0.066671 0.26192 0.10839 -0.14526 -0.29994 -0.045481 0.31728 0.39651 0.28793 0.10255 -0.14343 -0.14758 -0.44153 0.040385 0.33838 0.30296 -0.38189 0.34199 -0.18397 0.32661 0.23869 0.38527 0.22471 0.16616 0.056088 -0.33256 -0.097261 0.2139 -0.17277 -0.031204 -0.12586 0.077371 -0.4084 -0.0072266 -0.30494 -0.22281 -0.083327 -0.074372 0.65527 -0.16409 -0.27555 -0.0754 0.50184 0.28777 0.026098 0.11635 0.045391 -0.31845 0.51131 -0.058646 0.44592 0.012107 0.13428 0.15368 -0.29052 -0.13575 -0.1232 -0.67422 -0.1645 -0.051091 -0.07448 -0.063088 0.13295 -0.33921 0.24617 -0.51213 -0.58097 -0.31042 -0.16325 0.0025802 0.052478 0.14108 0.26208 -0.37179 0.35169 -0.50272 0.23001 -0.061458 -0.15281 0.18484 
the 0.41996 0.21605 -0.080327 -0.26061 -0.15863 -0.13652 0.28767 0.11638 0.056576 0.43225 0.019498 -0.38656 0.10507 0.06606 0.063608 -0.27746 -0.052249 0.12188 0.0013482 0.033129 0.31715 0.47338 0.039942 0.10324 -0.40719 -0.25869 0.18701 0.084403 -0.077885 -0.18532 0.010167 -0.15701 -0.24186 0.1948 0.068978 0.097353 -0.020522 0.56417 -0.11083 -0.07334 -0.056129 0.26104 0.23817 -0.40857 -0.20303 -0.50517 0.14966 -0.027515 -0.16704 -0.034194 0.4034 0.20749 0.12069 0.13007 -0.044473 -0.068655 -0.10989 -0.36585 0.07597 -0.21193 -0.23891 0.13444 0.31518 -0.33603 0.2245 0.10562 0.059261 -0.13623 0.17691 -0.40047 0.4145 0.49076 -0.17014 0.14222 0.23081 0.14495 -0.4421 -0.17212 0.15647 -0.10951 0.22567 0.14335 -0.19562 -0.083648 0.76349 -0.080705 -0.50514 0.044602 -0.12216 -0.082043 -0.041625 -0.034647 -0.19084 -0.093705 0.032966 -0.28869 -0.037883 0.13958 0.39412 0.17481 
National 0.079311 0.74378 0.37759 0.013325 -0.15336 0.46363 -0.27838 -0.29187 -0.66442 -0.27987 0.16497 0.18505 0.36095 0.79939 0.43609 -0.9562 0.23722 0.0015208 -0.67185 0.063801 0.49053 0.89903 -0.032526 -0.8182 -0.86389 -0.45077 0.07374 0.71382 -0.27445 -0.0014342 0.2471 0.86185 -0.32731 -0.44282 0.82423 -0.21189 -0.77149 0.35397 -0.066334 -0.10343 0.43778 -0.062778 0.3547 -0.15762 0.19997 0.021598 -0.5274 0.18859 -0.13911 -0.14902 0.40099 -0.33469 0.081284 0.029757 -0.41117 0.2656 -0.24797 0.30774 -0.09509 -0.049541 -0.65666 -0.66968 0.25334 0.21198 0.049523 0.49643 -0.52669 0.37525 0.60322 -0.1602 0.332 0.19326 0.0069732 0.32612 0.0071812 0.18489 0.24815 -0.27743 -0.40283 -0.85325 -0.47811 0.3342 -0.34865 0.018506 0.27003 -0.22042 -0.23067 -0.48075 -0.07776 -0.52741 0.062837 0.22081 -0.15215 -0.030891 0.67427 -0.23075 -0.57119 0.64386 -0.3347 -0.23551 
Planetarium’s 0.14273 0.1601 0.082291 0.16974 -0.056083 -0.12415 -0.018565 -0.1196 0.049425 0.062481 -0.082508 -0.001034 -0.023462 0.027879 -0.1665 -0.113 -0.045068 0.024971 0.089865 0.080401 0.055585 0.22754 -0.014953 -0.060517 -0.25097 0.037977 0.035434 0.023064 0.023672 -0.2347 -0.052636 0.14498 -0.26015 -0.26817 0.064264 0.068802 -0.13241 0.025333 -0.043117 0.055824 0.38619 -0.084572 0.16145 -0.10566 0.021962 -0.27552 -0.036691 0.017395 0.03983 0.17491 -0.016838 0.098305 -0.0582 0.0023281 -0.17614 -0.052549 -0.039177 -0.2212 -0.04884 -0.059277 -0.29187 0.062069 0.1209 -0.21794 -0.11363 0.11539 -0.10774 0.0077445 0.22709 -0.17134 -0.07761 0.12862 -0.025741 0.15174 0.10155 0.16685 0.017399 -0.27241 0.055415 -0.18785 0.062182 0.061173 -0.037136 0.065006 0.31273 -0.13493 -0.20217 -0.1549 -0.13238 -0.077071 -0.12481 -0.021136 -0.047094 -0.087931 -0.061966 -0.051259 -0.015463 0.20622 0.032383 0.19448 
new 0.5445 0.074483 0.28427 0.019638 0.044124 0.018927 -0.1891 -0.23014 0.055354 0.30322 0.36581 0.13025 -0.60543 0.15134 -0.32079 0.14313 0.20897 0.11167 0.11191 -0.10753 0.92163 0.51395 -0.54834 -0.399 -0.63324 0.82449 0.2861 0.20436 0.5593 0.21547 -0.16137 0.095745 -0.20286 -0.32266 -0.3773 -0.16197 -0.13246 0.23367 0.01586 0.043739 0.34906 0.041214 0.2144 0.041134 0.69523 -0.32837 0.11581 0.23094 -0.36249 0.039769 -0.041066 -0.35183 0.091094 -0.59918 -0.144 0.00030865 -0.1481 -0.25966 0.081538 -0.025708 -0.54446 0.21155 0.15442 -0.24579 -0.15667 -0.23649 -0.29997 0.26505 -0.0062386 -0.16563 0.36319 0.24445 -0.043894 0.39751 0.67434 0.61864 0.30585 -0.60906 -0.36466 -0.024716 0.67858 -0.074804 0.12046 -0.011904 0.39606 0.2127 -0.21714 0.0063657 -0.34762 -0.01839 -0.45411 0.46888 0.056745 -0.35514 -0.35402 -0.43667 0.084543 0.72263 0.19138 -0.24625 
exhibit. 0.045737 0.23356 -0.062122 -0.015929 -0.10487 -0.046468 0.11051 -0.11333 0.040136 0.074063 -0.12367 -0.012718 -0.15431 -0.051691 -0.20719 0.044045 -0.0071729 0.30914 0.20959 -0.14042 0.0086053 0.22401 -0.042052 -0.0063825 -0.37256 0.092456 0.096239 0.13346 0.085956 -0.1312 0.063224 0.032764 -0.1529 -0.23595 0.054282 0.062627 -0.05569 0.10136 -0.014338 0.03154 0.22201 -0.025005 0.049775 -0.026479 0.093957 -0.30653 -0.052479 0.1568 -0.086355 0.18765 0.13958 0.004675 -0.079154 -0.049276 -0.12164 0.012385 -0.0096372 -0.056218 0.13956 0.025556 -0.096293 0.085188 0.097444 -0.15259 0.0082227 -0.0021235 0.014466 -0.077053 0.091402 -0.2028 -0.034421 -0.079333 -0.05601 0.046134 0.033133 0.21115 -0.11206 -0.22375 -0.067587 -0.077608 0.065126 0.17112 0.094424 -0.069589 0.46309 -0.16393 -0.21447 -0.20809 0.0034386 -0.053259 -0.14375 0.14861 -0.052953 -0.12488 0.0096637 0.029454 0.078347 0.096748 0.040081 0.22823 
— 0.017249 0.65649 0.27148 0.39973 -0.13102 0.53559 0.25393 -0.11558 0.21877 -0.38363 -0.31356 -0.40673 -0.079774 -0.49913 0.096965 0.26906 -0.14851 0.43216 -0.11546 -0.60286 -0.44853 -0.047774 -0.065818 -0.35684 -0.54739 -0.2921 -0.21999 0.17199 -0.75987 0.18734 0.50891 0.28586 -0.54918 0.0056618 0.050891 0.5411 -0.34119 -0.32053 -0.025257 0.14381 0.4118 -0.48461 -0.046342 -0.11889 0.27175 -0.36252 0.12077 -0.33091 0.35023 0.72013 -0.14985 0.33063 -0.44898 0.64507 -0.29462 -0.32958 -0.033367 -0.028362 -0.11839 0.26616 0.1417 -0.34012 0.27903 -0.84592 -0.27118 0.8313 -0.54148 -0.57146 0.2439 -0.44297 -0.058557 0.13827 -0.14693 -0.18573 -0.2289 -0.061975 -0.066914 -0.098961 0.00093568 0.082025 0.36405 -0.10869 -0.20458 0.047248 0.63758 0.019571 -0.066298 -0.38522 0.37657 -0.17813 0.23771 0.61642 0.21845 -0.13323 -0.01301 0.034784 0.11948 0.064191 0.22883 -0.56649 
Bernama 0.073893 0.16932 0.27555 0.44772 -0.4384 -0.022432 0.10737 -0.15043 -0.13212 -0.11209 -0.031851 0.047218 0.11655 0.1378 -0.06039 -0.14685 -0.10435 -0.093607 -0.065409 0.0050191 -0.04432 0.5329 0.054687 -0.1497 -0.62991 -0.023484 -0.19995 0.42148 -0.067981 -0.015771 -0.014492 0.51306 -0.85008 -0.16065 0.45759 0.37425 0.032095 0.26147 -0.29054 -0.088876 0.21047 -0.22423 0.065696 0.182 0.33189 -0.23043 -0.14781 -0.035367 0.44044 0.31633 -0.1616 0.19584 -0.45827 0.081084 -0.36471 -0.17541 -0.10062 -0.18449 0.12773 -0.061563 -0.56641 -0.039398 0.034888 -0.16218 0.012054 0.63636 -0.14018 0.14458 0.46925 -0.39108 0.059509 0.26998 -0.05651 -0.21184 -0.08983 -0.20884 0.046207 -0.17582 -0.039531 -0.51386 0.063874 0.091086 0.15978 -0.0095019 0.23852 -0.28564 -0.37605 -0.22242 0.30281 -0.46439 -0.070899 -0.0063933 0.13699 -0.015776 -0.23029 -0.090558 0.13136 0.24673 -0.003971 -0.14828 
KUALA -0.2344 0.10632 -0.0055231 0.7976 -0.57536 0.090075 0.50499 -0.22997 0.2796 -0.19795 -0.12253 0.050402 -0.17483 -0.13565 -0.27186 0.012747 -0.17036 -0.017186 0.15732 -0.18917 -0.15999 0.54935 -0.0049401 -0.68965 -0.65458 -0.10858 -0.34516 0.41944 -0.3595 0.14037 0.13376 0.56426 -0.98638 -0.055924 0.22968 0.70053 0.09242 0.15831 -0.57222 -0.022517 0.0060941 -0.1157 0.24376 0.17187 0.42567 -0.21819 0.089731 -0.11491 0.61777 0.6223 -0.097514 0.079959 -0.60228 0.072081 -0.48204 -0.36657 -0.21108 -0.14535 0.26931 -0.05618 -0.63112 -0.17086 -0.022742 -0.35595 -0.021946 0.64635 -0.15306 0.18486 0.40893 -0.67126 -0.0017231 0.32287 -0.21246 -0.38299 -0.18968 -0.15944 -0.17326 0.028148 -0.092856 -0.59413 0.15202 -0.028727 0.18847 -0.12454 0.5778 -0.64385 -0.37952 -0.33898 0.33785 -0.14783 0.019363 0.27474 0.26055 -0.06546 -0.16338 0.056743 0.38588 0.31681 -0.047703 0.0044417 
LUMPUR: -0.2442 0.097362 -0.061501 0.62924 -0.49455 0.099439 0.47108 -0.22428 0.26632 -0.10721 -0.16979 0.092556 -0.20845 -0.16734 -0.28856 0.048528 -0.19079 0.034148 0.16898 -0.17942 -0.19428 0.51426 0.032639 -0.50497 -0.58502 -0.15124 -0.24042 0.38572 -0.31437 0.11391 0.037657 0.47374 -0.94765 -0.024424 0.22946 0.51638 0.096018 0.10488 -0.50022 -0.019351 -0.034206 -0.092481 0.16324 0.17005 0.40583 -0.13396 0.036898 -0.11797 0.51397 0.55717 -0.061798 0.034935 -0.49539 0.05354 -0.43286 -0.26666 -0.15775 -0.1119 0.26321 -0.044844 -0.58409 -0.071398 0.0063407 -0.29288 0.015106 0.65059 -0.13913 0.14951 0.40714 -0.60956 -0.048452 0.20522 -0.15782 -0.37799 -0.14564 -0.15363 -0.16259 -0.05858 -0.078359 -0.47412 0.059939 0.066256 0.18582 -0.17235 0.57676 -0.55647 -0.33574 -0.2884 0.38722 -0.14218 0.080554 0.20746 0.23121 -0.059265 -0.19965 0.053226 0.3575 0.23411 -0.085472 -0.020205 
Imagine -0.094466 0.16616 0.17895 0.3085 -0.30925 -0.2111 0.15462 -0.15678 0.25026 0.07263 -0.11835 -0.039907 0.05482 -0.29361 -0.43867 -0.37661 -0.18644 0.2234 0.040214 -0.089508 -0.067236 0.34014 -0.23889 -0.27095 -0.67073 0.27181 0.11382 0.56757 0.075892 0.19021 0.036138 0.14925 -0.2239 -0.37609 0.21312 0.33241 0.11907 -0.030018 -0.16429 0.096067 0.51138 0.038472 0.5204 0.11229 -0.056783 -0.61525 0.12422 0.20362 0.232 0.44833 -0.21263 0.34744 -0.26109 0.039273 -0.27991 -0.23146 -0.082518 -0.32724 -0.13502 0.10299 -0.54166 -0.06974 -0.22681 -0.64692 -0.20481 0.23068 -0.29309 0.47958 0.27511 -0.66036 -0.10944 0.22334 -0.018733 0.065782 0.24265 -0.063455 -0.14961 -0.11829 -0.085858 -0.12271 0.43459 -0.052852 -0.070561 0.12948 0.33634 -0.31303 -0.15284 -0.49795 0.24029 -0.24222 -0.22233 0.4232 -0.043682 -0.17592 -0.066798 -0.030011 -0.056379 0.33092 -0.029793 0.096778 
stepping 0.40071 0.32793 0.16916 0.20593 0.12181 0.21676 -0.26982 0.089909 -0.0014066 0.22998 -0.099276 -0.13442 -0.15594 0.32479 -0.037886 -0.28859 -0.24806 0.60154 0.1572 -0.33589 0.48267 -0.33174 0.094552 0.19762 0.281 0.20403 0.2828 0.04205 -0.15797 -0.098271 -0.062905 0.41842 -0.26691 -0.31225 0.099121 -0.10288 -0.24088 0.18741 -0.14215 0.36416 0.50862 -0.12248 0.10466 -0.04637 -0.14952 -0.18728 -0.17041 -0.32394 -0.13676 0.051305 -0.0066114 -0.081026 -0.1735 0.24639 -0.11448 -0.61723 0.0203 -0.13162 0.20408 0.03322 -0.38083 -0.038226 0.3362 -0.076661 -0.37624 0.036075 -0.19907 -0.24441 0.23377 -0.20418 0.029672 -0.10433 -0.093197 0.22936 0.28695 0.18488 -0.11274 -0.27257 -0.088997 -0.42806 0.067871 0.026232 0.0088766 0.12077 0.36503 -0.20573 -0.48014 -0.2659 -0.066995 -0.11636 -0.25719 0.17206 -0.00027476 -0.36846 -0.039709 -0.7146 -0.23117 0.26729 0.035711 -0.048841 
into 0.057336 0.48972 0.14742 -0.58048 -0.034369 0.25158 -0.047496 -0.078927 -0.22151 -0.029395 -0.20726 0.12416 -0.2741 0.23852 -0.050032 -0.37382 -0.24455 0.47513 0.62556 -0.39501 0.34486 -0.02733 -0.44044 0.27261 0.27252 -0.22657 0.4783 0.2417 -0.34294 0.018537 0.039784 -0.099582 -0.35909 -0.05404 0.19734 0.012918 -0.2552 0.11974 0.19479 0.53509 0.12469 -0.076128 0.39493 -0.17596 0.2615 -0.66924 -0.27719 0.13563 -0.24557 0.57104 0.14131 0.030634 -0.08464 0.071449 0.055463 -0.031281 0.29994 -0.24049 0.26387 -0.16993 -0.30932 -0.085221 0.51003 -0.32513 0.15008 0.27134 0.094265 -0.15845 0.36001 -0.10232 0.11872 -0.36436 0.13545 0.39057 0.07538 0.39378 0.031057 -0.18777 0.11225 -0.35719 0.13051 0.30652 -0.14253 -0.059751 0.56277 -0.34074 -0.19966 -0.46715 0.24717 0.17474 -0.44867 0.36212 -0.16206 -0.080071 0.090367 -0.27596 0.09291 -0.27299 -0.1204 0.028347 
a 0.2482 0.57079 0.18915 -0.13818 0.052547 0.050874 0.17827 -0.081433 0.03509 0.10083 -0.18808 0.089035 0.13224 0.0054343 -0.16782 -0.25745 -0.03365 0.29004 -0.24829 -0.21245 0.21058 0.43888 -0.15153 -0.049292 -0.39335 0.17329 0.27812 -0.22897 -0.048752 0.20988 0.25001 0.071344 -0.29995 -0.14052 0.1243 0.20244 0.10147 0.45074 -0.0066407 0.3063 0.2623 0.077823 0.052151 -0.00063711 0.15451 -0.3324 0.016766 -0.067125 -0.022738 -0.039371 0.28897 -0.19302 0.17963 -0.22123 0.058589 -0.11042 -0.0032999 -0.076492 0.24438 -0.21107 -0.14473 -0.12714 -0.046043 -0.18976 -0.12132 0.075593 -0.2156 -0.24094 0.27093 -0.093522 0.013468 0.17954 -0.19664 0.16596 0.02598 0.38977 -0.28417 -0.28418 -0.045558 0.040935 0.42675 -0.12641 -0.040803 -0.081703 0.31154 -0.044716 -0.54379 -0.20429 0.091612 -0.24041 -0.22323 -0.042106 -0.15457 -0.11289 0.15188 -0.33326 0.02499 -0.079881 0.3682 0.28555 
room 0.28579 0.64253 0.15999 -0.12107 -0.17924 0.060772 0.00097871 0.040266 0.41614 0.081797 -0.13037 0.41509 -0.1534 -0.1648 -0.31596 -0.16919 -0.25303 0.58718 -0.0025262 -0.28972 -0.27182 0.079762 -0.053383 -0.14761 -0.59889 0.2124 -0.010485 -0.04651 0.037942 0.14026 0.17014 -0.14751 -0.40274 -0.34057 0.029742 0.072372 -0.25816 0.11573 -0.42113 0.42803 0.21005 0.069232 0.37094 -0.12103 0.080094 -0.15676 0.020113 0.097205 0.062618 0.35403 0.25651 -0.076771 0.049521 0.07274 -0.24016 0.077357 -0.11608 -0.11302 -0.13524 0.031347 -0.26051 -0.21021 0.34012 -0.49075 -0.28715 0.044437 0.018934 -0.055636 -0.12294 -0.44245 0.087833 -0.083611 -0.21644 0.40927 -0.089175 -0.067811 -0.43896 -0.49508 -0.0075858 -0.084704 0.1117 0.027894 -0.05311 -0.1756 0.3875 -0.40549 -0.10599 -0.20944 -0.014948 0.29691 -0.077671 0.35837 0.2287 -0.30988 0.2087 0.040603 0.2719 0.068088 -0.11637 0.216 
that 0.49212 0.51465 -0.20386 0.11914 -0.052522 0.39524 0.377 -0.0139 -0.14699 0.054803 -0.22445 -0.48629 0.10849 0.19171 -0.055285 0.055789 -0.0037857 0.11424 0.19689 -0.28047 0.11123 0.085759 -0.0088385 0.28597 -0.64215 -0.091042 0.14411 0.36299 -0.12744 -0.016807 0.043412 -0.10866 -0.1023 -0.28643 0.21659 -0.037141 0.39086 0.2879 0.028581 -0.23192 0.20521 -0.12293 -0.04929 -0.052132 -0.3297 -0.64482 -0.072632 0.25498 0.093061 0.24828 0.37459 0.069988 -0.22738 0.069693 -0.018172 -0.22788 0.092344 0.1886 0.32565 -0.25288 -0.19676 0.10084 0.21203 0.036817 0.18313 0.0060609 0.080168 0.092018 0.14373 -0.40126 0.13428 0.14241 0.11204 -0.016184 0.25874 0.19562 -0.067598 -0.40827 -0.15043 0.006389 0.37673 -0.027621 0.083344 -0.11634 0.52421 -0.14641 -0.47952 -0.19195 -0.1809 -0.0046625 -0.12811 0.25595 -0.10956 0.14579 0.037469 -0.15371 -0.023676 0.18351 0.43807 0.1901 
makes 0.1748 0.58782 0.062057 -0.016284 -0.025851 -0.22806 -0.032053 -0.18726 0.196 0.15898 -0.20088 -0.36946 0.017196 -0.33645 -0.37551 0.061779 0.18869 0.24515 -0.056444 0.092042 -0.097253 0.068002 -0.10165 -0.24012 -0.46279 0.24764 0.43402 0.32354 -0.05524 0.043358 0.032255 -0.2571 0.4363 -0.63305 -0.019153 -0.046018 -0.16116 -0.22617 -0.027067 0.29346 0.91471 -0.12378 0.10492 -0.19948 -0.30009 -0.5807 -0.049764 0.40687 0.0067088 0.20116 -0.023271 0.080982 -0.020941 0.20203 -0.42301 -0.03992 0.011994 -0.31282 -0.20467 0.078911 -0.089145 -0.062629 0.083209 -0.48199 -0.10958 0.27373 0.015256 -0.14745 -0.012344 -0.43303 -0.24322 0.022494 0.050937 0.23401 0.10479 0.55647 0.037871 -0.2475 -0.29053 0.38451 0.22281 0.099418 -0.11643 0.041815 0.69879 -0.12944 -0.045968 -0.32708 -0.04306 -0.57169 -0.17208 0.14545 0.074491 -0.38155 -0.043289 0.083075 -0.25952 -0.093611 0.39256 0.27406 
you -0.32839 0.19883 0.044965 -0.17234 -0.13601 -0.090041 0.48663 -0.096309 0.00056454 0.55252 -0.48626 -0.10556 -0.077926 -0.44506 -0.31063 -0.20242 -0.21177 0.48386 0.1097 -0.81063 -0.41845 0.36983 -0.51998 -0.11421 -0.81625 0.52894 0.68188 0.56768 0.41515 0.3693 -0.049881 0.34526 0.35143 -0.26499 -0.73815 0.0094826 0.30683 -0.16034 -0.50074 -0.22824 0.28729 -0.068055 0.20618 -0.11472 0.19564 -0.30922 -0.19396 0.5664 -0.31816 0.34696 0.053027 -0.57974 -0.34371 -0.12305 -0.19285 -0.24591 -0.014643 -0.5495 0.20431 0.62743 -0.32951 -0.27573 0.2395 -0.60932 0.57937 0.094054 -0.59631 0.17536 0.15973 -0.46358 -0.005851 -0.12572 -0.30342 0.015363 0.065104 0.30888 0.13379 0.19488 -0.15982 0.030141 0.65718 0.11984 0.35899 -0.18892 0.85228 -0.74816 -0.10229 -0.29704 0.019336 0.50227 -0.29337 0.64341 0.10605 -0.27235 0.28076 -0.065977 0.059373 0.52695 -0.046686 0.32242 
feel 0.46184 0.65789 0.18823 0.04861 -0.04699 -0.26587 0.33341 0.083998 -0.10568 0.49994 -0.43793 -0.36184 0.10547 -0.33561 -0.11296 -0.0001435 -0.22542 0.72333 0.13046 -0.57414 -0.43087 0.040275 -0.26752 0.09148 -0.72316 0.52153 0.54624 0.14129 0.46084 0.092429 -0.062881 -0.054018 0.16218 -0.41265 -0.36111 -0.20257 0.073466 -0.13243 0.06035 0.0057043 0.2973 -0.17272 0.15904 -0.27677 -0.09534 -0.42271 -0.28833 0.49049 -0.024762 0.36108 0.074741 -0.089202 -0.23482 0.015666 -0.21153 0.0051794 0.21643 -0.16736 -0.023988 0.57481 -0.060728 -0.03174 0.33646 -0.67244 0.059493 0.10184 -0.43737 -0.34713 0.020681 -0.4702 -0.10756 -0.46467 -0.042781 0.24277 -0.15948 0.23287 0.057581 -0.35174 0.012199 0.17857 0.3853 0.047009 0.12641 0.093352 0.75715 -0.39617 -0.36072 -0.35885 0.082472 0.17462 -0.16756 0.18622 -0.15662 -0.31935 0.082056 -0.14164 -0.0047681 0.25134 0.22538 0.2569 
as 0.13796 0.41886 0.11705 0.26794 -0.16146 -0.36514 -0.04798 -0.18126 0.030483 0.26698 -0.32443 -0.05798 -0.21376 -0.26318 0.20908 -0.48093 0.078487 0.41506 -0.43264 -0.11815 0.28386 0.10351 -0.32343 0.39592 -0.31631 -0.30472 0.34103 -0.22783 -0.27196 0.088588 0.1242 -0.24598 -0.59216 -0.46066 -0.0082951 0.036371 -0.33936 0.0687 0.25903 -0.014262 0.48272 -0.36259 0.46197 -0.017377 0.035683 -0.56219 -0.28442 0.019462 -0.49688 0.081942 0.06918 -0.08169 -0.30314 -0.32145 0.231 -0.26199 0.055675 -0.02035 0.057655 -0.49311 -0.13053 -0.087276 0.1639 -0.032737 -0.13587 -0.010889 -0.29734 0.11889 0.13611 -0.25671 -0.12062 0.62218 -0.008955 0.018163 0.24666 0.17252 0.067945 -0.36646 -0.13589 -0.25576 0.14762 -0.14488 -0.32363 -0.058326 0.35946 0.34462 -0.51781 -0.44075 0.25187 -0.23403 -0.071308 -0.18223 0.52089 -0.22919 0.27419 0.031492 -0.0020484 -0.029843 0.43072 0.026409 
if 0.2046 0.38971 0.15189 -0.03566 0.12519 -0.19088 -0.041062 -0.039406 -0.04594 0.27799 -0.50189 -0.25441 0.21926 -0.20489 -0.16141 0.10632 0.1077 0.41449 0.072682 -0.4001 -0.2628 -0.23009 -0.042405 0.20448 -0.68549 0.18528 0.15891 -0.038513 0.026406 -0.19373 0.30035 -0.10059 0.086329 -0.35702 0.0087646 0.1367 0.28386 0.13219 0.026233 0.022638 0.5094 -0.26874 -0.071068 -0.017644 -0.31381 -0.72034 -0.16708 0.19046 -0.21869 0.23582 -0.033557 0.23273 -0.51374 -0.028531 -0.53116 -0.11389 -0.10198 -0.18545 0.31595 0.067699 0.15468 -0.33883 0.19791 -0.2324 0.22728 0.10303 0.0076604 -0.26353 0.24122 -0.29649 -0.0082969 -0.033384 -0.056521 0.18198 0.21221 0.54989 -0.10022 -0.040985 -0.12108 0.0072668 0.20713 0.2016 0.084407 0.037729 1.0107 -0.3237 -0.12953 -0.47295 -0.040633 -0.1088 -0.43324 0.08511 0.33737 -0.27788 0.23039 0.0037897 0.1125 0.0041939 0.21544 0.401 
you -0.32839 0.19883 0.044965 -0.17234 -0.13601 -0.090041 0.48663 -0.096309 0.00056454 0.55252 -0.48626 -0.10556 -0.077926 -0.44506 -0.31063 -0.20242 -0.21177 0.48386 0.1097 -0.81063 -0.41845 0.36983 -0.51998 -0.11421 -0.81625 0.52894 0.68188 0.56768 0.41515 0.3693 -0.049881 0.34526 0.35143 -0.26499 -0.73815 0.0094826 0.30683 -0.16034 -0.50074 -0.22824 0.28729 -0.068055 0.20618 -0.11472 0.19564 -0.30922 -0.19396 0.5664 -0.31816 0.34696 0.053027 -0.57974 -0.34371 -0.12305 -0.19285 -0.24591 -0.014643 -0.5495 0.20431 0.62743 -0.32951 -0.27573 0.2395 -0.60932 0.57937 0.094054 -0.59631 0.17536 0.15973 -0.46358 -0.005851 -0.12572 -0.30342 0.015363 0.065104 0.30888 0.13379 0.19488 -0.15982 0.030141 0.65718 0.11984 0.35899 -0.18892 0.85228 -0.74816 -0.10229 -0.29704 0.019336 0.50227 -0.29337 0.64341 0.10605 -0.27235 0.28076 -0.065977 0.059373 0.52695 -0.046686 0.32242 
were 0.17011 0.72653 -0.083583 0.18859 0.067867 0.072881 -0.10781 0.13396 0.14319 -0.23663 0.13471 0.033935 -0.33049 0.095193 -0.0017481 -0.31098 -0.18405 0.66422 0.18698 -0.50368 -0.51252 0.18848 -0.16619 0.11182 -0.56913 -0.52006 0.13251 0.081556 -0.10076 -0.027096 -0.091645 -0.10775 -0.45749 0.059471 0.13641 0.14654 0.03944 0.12553 -0.093946 -0.26487 0.1456 -0.044437 0.10312 0.092272 0.25207 -0.46646 0.20279 0.21644 -0.23095 0.51519 0.33168 0.21265 -0.22683 0.075658 -0.15106 -0.044084 -0.2584 0.13889 -0.25554 -0.059647 -0.23636 0.15024 0.23038 0.05 0.18607 0.1545 0.30802 -0.49458 -0.048161 -0.26215 0.15055 0.023459 -0.21842 0.041452 -0.0085931 0.073569 -0.27803 -0.68022 0.19405 -0.12932 0.051239 0.090704 -0.27439 0.059551 0.41014 -0.10634 -0.37946 -0.23472 0.21063 -0.051951 -0.064818 0.7364 0.18927 0.119 0.063818 0.19783 0.091264 -0.16382 -0.23387 0.32351 
in 0.2173 0.37729 -0.009435 -0.20952 -0.26952 0.025746 -0.19553 -0.02313 -0.18097 -0.085322 0.11797 -0.0059514 -0.26267 0.011946 -0.3958 -0.46504 -0.13092 -0.26391 0.40169 -0.058458 0.042057 0.15949 -0.31135 0.01995 -0.095311 -0.20205 0.21636 0.18875 -0.013036 -0.037272 -0.19301 -0.32444 -0.34004 -0.24713 0.081897 0.39808 -0.079967 0.15545 -0.084569 0.32846 0.13002 -0.1101 0.51971 -0.2452 -0.084412 -0.67382 -0.18316 0.29424 -0.36999 0.12068 0.24375 0.30863 0.25547 0.051341 -0.018759 -0.30925 0.39365 0.058849 0.44072 -0.20734 -0.36363 -0.0044833 0.21831 -0.1221 0.15273 0.37327 0.083987 -0.4607 0.33959 -0.24914 0.065292 0.20236 0.072174 0.035901 0.24379 0.36655 -0.32005 -0.5698 0.19147 -0.10315 0.098406 0.1279 -0.32011 0.1098 0.025143 -0.27427 -0.24103 -0.19113 -0.12023 0.049903 -0.27583 -0.23938 0.067987 -0.063863 0.46276 -0.24467 0.19073 -0.26714 0.28868 0.44953 
zero-gravity. 0.10945 0.25104 -0.03274 0.038074 0.06813 -0.056378 0.024357 -0.02358 -0.0078424 0.15874 -0.13741 -0.069134 -0.031243 -0.015308 -0.076368 -0.034877 -0.035051 0.12206 0.052427 -0.049772 0.0037875 0.22243 0.014152 0.018861 -0.20749 0.0061785 0.17296 -0.033673 0.076935 -0.088482 -0.053088 0.11309 -0.12968 -0.10221 0.013435 -0.024745 -0.061574 0.019015 -0.036975 0.052193 0.27479 -0.087635 0.17554 -0.088713 -0.027035 -0.21418 -0.022514 0.038029 -0.049354 0.047396 0.058319 0.11322 0.0040595 -0.012626 -0.072883 -0.046131 0.079978 -0.11316 -0.0021852 -0.0038993 -0.082457 0.00063529 0.095576 -0.11627 -0.036439 0.048307 -0.12183 -0.078715 0.080854 -0.18295 0.011939 0.12384 -0.023516 0.085596 0.0080665 0.18004 -0.086056 -0.24475 -0.014881 -0.026396 0.037536 0.029929 -0.021474 0.028252 0.21595 -0.081813 -0.12952 -0.13103 -0.0497 0.018683 -0.13957 0.097569 -0.040173 -0.091475 0.071086 -0.032359 -0.071421 0.15065 0.13417 0.068572 
Or 0.26217 0.40989 -0.12571 -0.13459 -0.1341 -0.0084545 0.15714 0.013253 0.26678 0.24306 -0.19661 0.10782 -0.019467 -0.10984 -0.27205 -0.18499 -0.27453 0.34142 0.032673 -0.19895 -0.10855 0.19595 -0.081529 -0.21598 -0.34862 0.054694 0.40087 0.057333 0.088069 0.052647 -0.11988 0.026404 -0.23137 -0.10828 0.098018 0.067597 -0.11043 0.010168 0.052619 0.15843 0.036513 0.082418 0.31477 -0.008204 0.099125 -0.25504 0.027918 0.025665 0.01535 0.16102 -0.022559 -0.12585 -0.057201 0.031819 -0.14829 -0.16129 0.06028 -0.10645 -0.0059213 0.23527 -0.27628 0.0023069 -0.0031061 -0.32819 -0.1552 0.097967 -0.23795 -0.1555 0.29859 -0.27518 -0.0074024 -0.047502 -0.058659 0.010429 -0.11333 0.17775 -0.10244 -0.51919 0.082477 -0.10298 0.30198 0.11175 -0.047012 -0.1729 0.27839 -0.44687 -0.31518 -0.33394 0.013495 0.16717 -0.032416 0.27396 -0.016944 -0.27747 0.052212 -0.054881 0.11251 0.21304 -0.10871 0.10213 
being 0.22741 0.4561 -0.12123 0.11485 0.065291 -0.13944 -0.43232 0.1098 0.014892 0.55087 0.026103 -0.22108 -0.22969 0.58223 -0.040118 -0.1674 -0.071254 1.0195 0.42814 -0.56827 0.22949 -0.29619 0.12752 0.25354 0.14371 -0.26159 -0.15215 0.078988 -0.16879 -0.30465 0.056083 0.18211 -0.27705 -0.29185 0.41676 -0.26401 -0.62956 0.33979 -0.33461 0.12086 0.24783 -0.031846 0.16326 0.21197 -0.18791 0.053914 -0.18439 -0.29396 -0.083307 0.21114 0.22905 -0.1628 -0.30966 0.12616 -0.15193 -0.48602 -0.25357 -0.086618 0.2964 0.047847 -0.51179 0.32025 0.16569 -0.10945 -0.65011 0.03536 -0.03037 -0.29501 0.17461 -0.081982 -0.13199 -0.38609 -0.18227 0.34526 0.42042 0.22074 -0.27962 -0.62414 0.058213 -0.32604 -0.42291 0.30071 0.2302 -0.099332 0.40274 -0.097245 -0.63567 -0.02978 0.2106 -0.43803 -0.15068 0.19192 -0.058875 -0.48521 0.1186 -0.29561 -0.19814 -0.048388 -0.017578 0.21941 
rocketed 0.32391 0.55907 -0.056057 -0.14468 -0.31836 0.16632 -0.23005 0.11076 0.17122 0.13543 -0.22024 0.1558 -0.30721 -0.0024938 -0.39623 -0.46107 -0.46297 0.64945 0.26118 -0.081657 -0.12099 0.16973 0.11446 0.18262 -0.12864 -0.1517 0.021785 0.083745 0.0037731 -0.24303 -0.011178 -0.023903 -0.40791 -0.3282 0.48253 0.038533 -0.43017 0.006484 0.051625 0.33146 0.36541 -0.13595 0.10096 -0.082701 0.043695 -0.26386 -0.23482 -0.25054 -0.08393 0.2485 0.2027 0.27702 0.26926 0.41507 0.13348 -0.58116 -0.051383 0.1673 -0.075535 -0.11328 -0.26054 0.27667 -0.34552 0.27783 -0.16982 0.13584 0.31945 -0.092581 0.33795 -0.11999 0.055163 0.39495 -0.12142 -0.018877 0.25521 -0.12857 -0.086493 -0.72849 0.45184 -0.29637 0.41672 -0.023659 -0.11027 -0.28774 0.1783 -0.064975 -0.35652 -0.20493 0.10444 0.16811 0.089561 0.25868 -0.22662 -0.037918 -0.12863 -0.1812 0.12455 -0.088935 -0.021068 0.15065 
through 0.024199 0.11338 0.089962 -0.31885 -0.02477 0.092173 0.018629 -0.30071 -0.073379 -0.08362 0.008381 0.16766 0.077047 -0.049703 -0.15244 -0.11807 -0.0064094 0.27786 0.017917 -0.11382 0.20276 -0.29138 -0.03616 0.064688 -0.056522 -0.47718 0.67127 -0.027831 -0.21511 -0.24155 0.33965 6.7353e-05 -0.27654 0.042254 0.35213 -0.21746 0.043377 0.46087 0.065581 0.52293 0.60782 0.076331 0.28847 -0.20198 -0.075498 -1.0343 0.012744 -0.087185 -0.043515 0.14204 0.061501 0.073095 -0.29553 0.093202 -0.49819 0.41202 0.11782 -0.16135 -0.13067 -0.054059 -0.29299 0.067418 0.67227 -0.36032 0.091269 -0.043404 0.064921 0.22982 0.36464 -0.3659 0.42299 0.053412 -0.16846 0.78603 0.086867 0.47716 -0.17282 -0.13261 -0.03603 -0.3195 0.092779 0.052618 -0.18418 -0.048989 0.77976 -0.15935 -0.25523 -0.48035 0.035124 0.13558 -0.39222 0.3111 0.20433 0.080897 0.16631 0.10552 -0.043385 0.05419 0.078399 -0.16854 
the 0.41996 0.21605 -0.080327 -0.26061 -0.15863 -0.13652 0.28767 0.11638 0.056576 0.43225 0.019498 -0.38656 0.10507 0.06606 0.063608 -0.27746 -0.052249 0.12188 0.0013482 0.033129 0.31715 0.47338 0.039942 0.10324 -0.40719 -0.25869 0.18701 0.084403 -0.077885 -0.18532 0.010167 -0.15701 -0.24186 0.1948 0.068978 0.097353 -0.020522 0.56417 -0.11083 -0.07334 -0.056129 0.26104 0.23817 -0.40857 -0.20303 -0.50517 0.14966 -0.027515 -0.16704 -0.034194 0.4034 0.20749 0.12069 0.13007 -0.044473 -0.068655 -0.10989 -0.36585 0.07597 -0.21193 -0.23891 0.13444 0.31518 -0.33603 0.2245 0.10562 0.059261 -0.13623 0.17691 -0.40047 0.4145 0.49076 -0.17014 0.14222 0.23081 0.14495 -0.4421 -0.17212 0.15647 -0.10951 0.22567 0.14335 -0.19562 -0.083648 0.76349 -0.080705 -0.50514 0.044602 -0.12216 -0.082043 -0.041625 -0.034647 -0.19084 -0.093705 0.032966 -0.28869 -0.037883 0.13958 0.39412 0.17481 
solar 0.33319 0.49204 -0.074909 0.15679 -0.068935 -0.11552 -0.01225 -0.10905 -0.047156 0.30846 -0.11598 -0.16995 -0.0078523 -0.054647 -0.18158 -0.047314 -0.06573 0.43404 0.30095 -0.08598 -0.053851 0.14422 -0.11882 -0.0076418 -0.26439 0.071776 0.36851 -0.038923 0.0062829 -0.046344 0.041793 0.10206 -0.23993 -0.35968 -0.0099153 -0.231 -0.15167 -0.17302 0.044324 0.18739 0.49937 -0.081779 0.27796 -0.17608 -0.011883 -0.43309 -0.065155 0.27145 -0.03624 0.13303 0.086163 -0.085844 -0.0087164 -0.0096601 -0.068099 0.17674 -0.013172 0.01207 -0.017691 -0.022245 -0.21002 0.094299 0.27279 -0.36029 -0.19879 0.076177 -0.20312 -0.10264 -0.0082839 -0.31965 -0.046455 0.064463 0.00032821 0.30271 0.016332 0.336 -0.046062 -0.28802 0.017452 0.034139 0.080234 0.11267 -0.12793 0.029431 0.5278 -0.21428 -0.23421 -0.20316 0.013251 -0.0039306 -0.1348 0.16172 -0.065167 -0.13529 0.037515 0.069425 -0.064502 0.18706 0.18579 0.29207 
system 0.36722 0.053534 0.1526 0.32854 0.05339 0.22245 0.34725 -0.49932 0.032101 -0.27406 0.13607 -0.11338 -0.35886 -0.041047 -0.46408 0.43537 0.40491 0.17403 0.29205 0.065668 0.45735 0.19741 -0.35131 0.1027 -0.38824 0.32579 0.064739 -0.1554 -0.29818 -0.41087 0.1866 0.1065 -0.25675 -0.86796 -0.15987 0.34057 -0.34968 -0.11021 0.34824 0.27442 0.36482 -0.37148 0.017317 -0.17028 0.51965 -0.62661 0.044917 0.21348 -0.052136 0.49691 0.29086 -0.11838 -0.14845 -0.088733 -0.38025 0.024733 0.044118 0.052168 0.13933 -0.048 -0.03602 0.11807 0.53201 -0.28577 -0.37274 -0.17808 -0.11743 -0.26017 0.39746 -0.10289 -0.080113 -0.2805 -0.17075 0.13612 0.59699 0.32224 0.13895 -0.29985 -0.20179 -0.097249 0.086238 0.22005 -0.39925 0.018528 0.82829 -0.28303 -0.65287 -0.39416 -0.32734 -0.064296 -0.089999 -0.18147 -0.03858 -0.38741 -0.22207 -0.1482 0.20788 0.33941 0.069318 0.37698 
in 0.2173 0.37729 -0.009435 -0.20952 -0.26952 0.025746 -0.19553 -0.02313 -0.18097 -0.085322 0.11797 -0.0059514 -0.26267 0.011946 -0.3958 -0.46504 -0.13092 -0.26391 0.40169 -0.058458 0.042057 0.15949 -0.31135 0.01995 -0.095311 -0.20205 0.21636 0.18875 -0.013036 -0.037272 -0.19301 -0.32444 -0.34004 -0.24713 0.081897 0.39808 -0.079967 0.15545 -0.084569 0.32846 0.13002 -0.1101 0.51971 -0.2452 -0.084412 -0.67382 -0.18316 0.29424 -0.36999 0.12068 0.24375 0.30863 0.25547 0.051341 -0.018759 -0.30925 0.39365 0.058849 0.44072 -0.20734 -0.36363 -0.0044833 0.21831 -0.1221 0.15273 0.37327 0.083987 -0.4607 0.33959 -0.24914 0.065292 0.20236 0.072174 0.035901 0.24379 0.36655 -0.32005 -0.5698 0.19147 -0.10315 0.098406 0.1279 -0.32011 0.1098 0.025143 -0.27427 -0.24103 -0.19113 -0.12023 0.049903 -0.27583 -0.23938 0.067987 -0.063863 0.46276 -0.24467 0.19073 -0.26714 0.28868 0.44953 
four -0.064359 0.43043 -0.062117 -0.06181 0.044487 0.45438 -0.16274 -0.0045555 0.74173 0.054227 0.08333 0.35177 -0.63993 0.047296 -0.34791 -0.051961 -0.52061 0.70789 0.57963 -0.11904 -0.16751 0.68483 0.032755 0.1057 -0.33508 -0.36243 -0.054818 -0.41118 -0.1331 -0.15208 0.37715 -0.044766 -0.4317 0.093695 0.081942 0.5321 -0.036482 0.36288 -0.42584 0.17051 -0.085649 0.18696 0.013478 -0.11294 -0.22845 0.15047 0.45038 -0.21751 0.53737 -0.10698 -0.069968 0.025406 0.53516 0.042963 -0.29618 0.18683 0.34537 -0.34413 0.31302 -0.17394 -0.34677 0.43852 0.14264 -0.2253 -0.35783 0.62806 0.097709 -0.4293 0.46745 -0.39608 0.073525 -0.017863 -0.56652 0.067378 0.070877 0.17468 -0.098754 -0.75528 0.2765 -0.11985 0.084597 0.36084 0.29821 -0.25522 0.64768 -0.12557 -0.25513 -0.29778 -0.40678 0.0010109 -0.086406 0.51085 -0.070241 -0.40732 0.13338 -0.1106 -0.15222 -0.38701 0.23548 0.19935 
minutes 0.099959 0.57385 -0.17778 0.030177 -0.041613 0.024097 -0.065763 -0.030894 0.59269 0.20223 -0.11415 0.48243 -0.14868 -0.46659 -0.46572 -0.051043 -0.061107 0.78377 -0.071707 0.00275 -0.2115 0.62744 0.18786 -0.22955 -0.43563 -0.28003 0.32315 -0.10926 -0.050254 0.30947 -0.14789 -0.14427 -0.33722 -0.17308 0.41036 0.29139 -0.30312 -0.25727 -0.15703 0.09962 0.12249 0.2839 0.47632 -0.24688 -0.27993 0.038952 0.32021 0.045734 0.090528 -0.10913 -0.0034835 -0.088837 -0.075971 0.24189 -0.20033 -0.3707 -0.1931 0.034937 0.07129 -0.18031 -0.26446 -0.13161 0.26058 -0.13946 -0.46104 0.54041 -0.16435 -0.25966 0.33606 -0.51206 0.24222 -0.23626 -0.1578 0.26875 0.21419 0.03072 -0.26625 -0.70983 -0.24111 -0.075371 -0.21797 0.26881 -0.43937 -0.10117 0.47765 -0.40243 -0.43238 -0.84759 -0.2116 0.35994 0.017344 0.52807 0.31349 -0.8291 0.08043 -0.02882 0.083801 -0.087681 -0.54365 0.18619 
inside 0.50824 0.79239 0.094136 -0.30084 -0.26338 0.25473 -0.057027 0.37392 0.22381 -0.00036098 -0.38625 0.07151 -0.012343 0.041896 -0.4772 -0.42527 -0.51873 0.52388 0.6116 -0.31021 -0.15167 0.045506 0.12667 -0.012664 -0.22003 0.23333 -0.010913 -0.18395 0.13158 -0.44921 0.10653 -0.078294 -0.064077 -0.18724 0.089239 0.44014 -0.13109 0.17169 -0.023323 0.42342 0.44116 -0.037733 0.40929 -0.49332 0.24535 -0.76597 -0.22276 0.022781 -0.25816 0.44549 0.13898 0.26622 -0.043252 0.16315 0.060384 -0.40652 0.40394 0.23882 -0.12163 0.06263 -0.037234 0.15833 0.64641 -0.51982 -0.11829 0.17227 0.022872 -0.39492 0.028056 -0.16183 0.089647 -0.25365 -0.12251 0.24321 -0.043622 0.12381 -0.48247 -0.53576 -0.21344 -0.17012 0.28011 0.301 -0.50484 0.010936 0.37756 0.15513 -0.25907 -0.085173 0.029472 0.43681 -0.24643 -0.33145 -0.22804 0.032365 0.25277 -0.1792 0.16372 -0.058825 0.04326 0.36183 
a 0.2482 0.57079 0.18915 -0.13818 0.052547 0.050874 0.17827 -0.081433 0.03509 0.10083 -0.18808 0.089035 0.13224 0.0054343 -0.16782 -0.25745 -0.03365 0.29004 -0.24829 -0.21245 0.21058 0.43888 -0.15153 -0.049292 -0.39335 0.17329 0.27812 -0.22897 -0.048752 0.20988 0.25001 0.071344 -0.29995 -0.14052 0.1243 0.20244 0.10147 0.45074 -0.0066407 0.3063 0.2623 0.077823 0.052151 -0.00063711 0.15451 -0.3324 0.016766 -0.067125 -0.022738 -0.039371 0.28897 -0.19302 0.17963 -0.22123 0.058589 -0.11042 -0.0032999 -0.076492 0.24438 -0.21107 -0.14473 -0.12714 -0.046043 -0.18976 -0.12132 0.075593 -0.2156 -0.24094 0.27093 -0.093522 0.013468 0.17954 -0.19664 0.16596 0.02598 0.38977 -0.28417 -0.28418 -0.045558 0.040935 0.42675 -0.12641 -0.040803 -0.081703 0.31154 -0.044716 -0.54379 -0.20429 0.091612 -0.24041 -0.22323 -0.042106 -0.15457 -0.11289 0.15188 -0.33326 0.02499 -0.079881 0.3682 0.28555 
capsule 0.24183 0.26729 -0.0063586 0.0030122 -0.060494 0.022815 0.16718 0.010554 0.19554 0.10852 -0.073108 -0.025372 -0.11853 -0.043037 -0.12358 -0.14856 -0.16879 0.29589 0.17872 -0.02914 -0.13774 0.36031 0.08572 -0.0089789 -0.41514 -0.13225 0.081505 -0.083688 -0.06563 -0.22684 -0.015344 0.036483 -0.11115 -0.22931 0.081445 0.17426 -0.21917 -0.021443 0.026786 0.091183 0.35541 0.086188 0.12178 -0.058827 0.085468 -0.28568 0.053343 -0.092858 -0.06496 0.17111 0.085005 0.25386 -0.036486 -0.04183 -0.084056 -0.21238 0.21004 -0.033236 -0.090892 0.19501 0.087847 0.066427 0.18476 -0.037256 -0.041026 0.067111 0.034114 -0.16045 0.17163 -0.094977 -0.055217 0.095082 -0.052907 -0.09453 -0.012439 0.081959 -0.16425 -0.26893 -0.071927 -0.08511 0.065004 0.10159 -0.099013 0.0043167 0.37933 -0.082901 -0.1055 -0.011394 -0.023416 -0.080053 -0.12653 -0.021131 0.014867 -0.20429 0.055484 -0.11407 -0.0048459 -0.013823 0.16455 0.15085 
that 0.49212 0.51465 -0.20386 0.11914 -0.052522 0.39524 0.377 -0.0139 -0.14699 0.054803 -0.22445 -0.48629 0.10849 0.19171 -0.055285 0.055789 -0.0037857 0.11424 0.19689 -0.28047 0.11123 0.085759 -0.0088385 0.28597 -0.64215 -0.091042 0.14411 0.36299 -0.12744 -0.016807 0.043412 -0.10866 -0.1023 -0.28643 0.21659 -0.037141 0.39086 0.2879 0.028581 -0.23192 0.20521 -0.12293 -0.04929 -0.052132 -0.3297 -0.64482 -0.072632 0.25498 0.093061 0.24828 0.37459 0.069988 -0.22738 0.069693 -0.018172 -0.22788 0.092344 0.1886 0.32565 -0.25288 -0.19676 0.10084 0.21203 0.036817 0.18313 0.0060609 0.080168 0.092018 0.14373 -0.40126 0.13428 0.14241 0.11204 -0.016184 0.25874 0.19562 -0.067598 -0.40827 -0.15043 0.006389 0.37673 -0.027621 0.083344 -0.11634 0.52421 -0.14641 -0.47952 -0.19195 -0.1809 -0.0046625 -0.12811 0.25595 -0.10956 0.14579 0.037469 -0.15371 -0.023676 0.18351 0.43807 0.1901 
simulates 0.31827 0.54571 -0.31597 0.18181 0.068558 0.14268 -0.18725 -0.41955 0.19749 0.17823 0.090785 -0.073154 -0.1054 0.023604 -0.3517 0.13269 0.056473 0.17392 0.19422 0.124 -0.03702 0.4276 -0.06662 -0.17234 -0.34184 0.18288 0.48615 0.12632 -0.20204 0.00079864 0.13204 0.40236 -0.30036 -0.42486 0.088652 -0.37072 -0.13575 -0.25223 -0.059126 0.31168 0.89345 0.093376 0.16938 -0.14927 -0.19548 -0.42762 0.0241 0.20688 -0.040422 0.24253 -0.14468 -0.12857 0.0015822 0.11041 -0.049634 0.10221 0.013467 -0.070246 -0.063366 -0.21676 -0.079318 0.16496 0.5053 -0.086165 -0.16992 0.51256 -0.084558 -0.23773 -0.053887 -0.45891 0.045173 0.06439 0.0058673 -0.01093 0.14408 0.21917 0.040855 -0.41196 0.10472 0.10953 -0.18258 0.012865 -0.094472 0.14932 0.75978 -0.1502 0.015065 -0.23637 -0.16977 0.15503 0.12743 0.28571 -0.074661 -0.082981 0.076622 0.0058326 -0.28099 -0.089611 -0.0064631 0.44996 
a 0.2482 0.57079 0.18915 -0.13818 0.052547 0.050874 0.17827 -0.081433 0.03509 0.10083 -0.18808 0.089035 0.13224 0.0054343 -0.16782 -0.25745 -0.03365 0.29004 -0.24829 -0.21245 0.21058 0.43888 -0.15153 -0.049292 -0.39335 0.17329 0.27812 -0.22897 -0.048752 0.20988 0.25001 0.071344 -0.29995 -0.14052 0.1243 0.20244 0.10147 0.45074 -0.0066407 0.3063 0.2623 0.077823 0.052151 -0.00063711 0.15451 -0.3324 0.016766 -0.067125 -0.022738 -0.039371 0.28897 -0.19302 0.17963 -0.22123 0.058589 -0.11042 -0.0032999 -0.076492 0.24438 -0.21107 -0.14473 -0.12714 -0.046043 -0.18976 -0.12132 0.075593 -0.2156 -0.24094 0.27093 -0.093522 0.013468 0.17954 -0.19664 0.16596 0.02598 0.38977 -0.28417 -0.28418 -0.045558 0.040935 0.42675 -0.12641 -0.040803 -0.081703 0.31154 -0.044716 -0.54379 -0.20429 0.091612 -0.24041 -0.22323 -0.042106 -0.15457 -0.11289 0.15188 -0.33326 0.02499 -0.079881 0.3682 0.28555 
shuttle 0.29125 0.48842 0.22933 -0.02535 0.10186 0.02764 -0.11783 0.071309 0.028901 0.11772 -0.13837 0.17239 0.18945 -0.13551 -0.067526 -0.32201 -0.54148 0.4511 -0.19263 -0.20711 -0.22304 0.28903 0.079759 0.059357 -0.25818 -0.022924 0.30124 -0.17562 -0.013284 0.021884 0.085678 0.18586 -0.07592 -0.080343 0.36049 0.16031 -0.14022 0.021106 0.012166 -0.02265 0.36287 -0.20363 0.2341 0.087539 -0.096651 -0.14516 -0.024096 0.030959 -0.045265 0.020996 0.026387 0.19709 0.015568 -0.0068062 -0.10758 -0.28488 -0.034397 -0.093885 0.13206 -0.015243 -0.24762 -0.18531 0.067904 -0.020127 -0.14397 0.082725 -0.47525 -0.034835 0.65466 -0.22537 -0.10224 0.11449 -0.071905 0.036877 0.074419 0.27985 -0.14903 -0.48823 0.031359 -0.15846 0.13251 0.15314 -0.13059 0.05131 0.32553 -0.29226 -0.44414 -0.38979 -0.10208 0.062666 -0.071863 0.25063 0.038278 -0.32543 0.016649 -0.21136 -0.039756 0.063933 -0.11667 0.16585 
launch. -0.0028615 0.14927 -0.15161 -0.0030788 -0.14849 0.40509 0.22377 -0.15436 0.19012 -0.39913 -0.24705 -0.073456 -0.091601 0.24375 -0.14138 -0.2106 0.065724 0.0060013 0.22034 0.090693 0.32132 0.20679 0.11352 0.01312 -0.18535 0.07911 -0.13013 0.055986 -0.23038 -0.23363 0.092528 0.32486 -0.47597 -0.41927 0.11212 0.24954 -0.31233 0.047161 0.22505 0.27261 0.42924 -0.24028 0.017835 -0.069441 0.26144 -0.76403 -0.021603 -0.24295 -0.021537 0.31958 0.27738 0.31063 0.096198 0.033667 -0.10753 -0.47563 0.063065 -0.10677 -0.0023048 -0.19061 -0.24264 0.035272 0.015678 -0.052078 -0.19872 -0.11733 0.11314 -0.2442 0.41625 0.016774 -0.21547 0.072923 -0.058828 -0.0069384 0.072108 0.23014 -0.10697 -0.28372 0.02253 -0.50569 0.22436 0.073371 -0.235 -0.0081592 0.49786 -0.03435 -0.44684 -0.17545 0.034946 -0.29748 -0.063555 -0.13348 -0.27508 -0.12578 -0.10754 -0.10676 0.13786 0.40825 0.4752 0.13824 
Or 0.26217 0.40989 -0.12571 -0.13459 -0.1341 -0.0084545 0.15714 0.013253 0.26678 0.24306 -0.19661 0.10782 -0.019467 -0.10984 -0.27205 -0.18499 -0.27453 0.34142 0.032673 -0.19895 -0.10855 0.19595 -0.081529 -0.21598 -0.34862 0.054694 0.40087 0.057333 0.088069 0.052647 -0.11988 0.026404 -0.23137 -0.10828 0.098018 0.067597 -0.11043 0.010168 0.052619 0.15843 0.036513 0.082418 0.31477 -0.008204 0.099125 -0.25504 0.027918 0.025665 0.01535 0.16102 -0.022559 -0.12585 -0.057201 0.031819 -0.14829 -0.16129 0.06028 -0.10645 -0.0059213 0.23527 -0.27628 0.0023069 -0.0031061 -0.32819 -0.1552 0.097967 -0.23795 -0.1555 0.29859 -0.27518 -0.0074024 -0.047502 -0.058659 0.010429 -0.11333 0.17775 -0.10244 -0.51919 0.082477 -0.10298 0.30198 0.11175 -0.047012 -0.1729 0.27839 -0.44687 -0.31518 -0.33394 0.013495 0.16717 -0.032416 0.27396 -0.016944 -0.27747 0.052212 -0.054881 0.11251 0.21304 -0.10871 0.10213 
touching 0.34968 0.69778 -0.11006 0.19724 0.039359 -0.26608 -0.12475 0.11625 0.12203 0.52092 -0.12429 -0.13369 -0.077964 -0.061463 -0.13348 -0.12127 -0.28611 0.63403 0.27288 -0.47297 0.13254 -0.3844 0.17203 0.040852 0.21186 -0.032558 0.37542 0.058455 -0.032784 -0.082305 -0.12645 0.11955 -0.14069 -0.13777 0.13094 -0.049335 -0.21382 0.21534 -0.039115 0.26843 0.18751 -0.08567 0.4156 -0.0031917 -0.24212 0.1176 -0.29687 -0.090062 0.21651 -0.12077 -0.044998 -0.12684 -0.10715 0.21744 -0.31543 -0.26734 0.078076 -0.14699 0.2944 0.11165 -0.51833 0.013207 0.22982 -0.37426 -0.46991 0.20097 -0.29697 -0.12808 0.12048 -0.30904 -0.084185 -0.46406 -0.021342 0.16244 0.067464 0.15925 -0.13824 -0.38979 0.033751 -0.12199 -0.12177 0.18348 0.13221 0.12279 0.45402 -0.30374 -0.64948 -0.24011 0.027177 -0.10752 -0.12794 0.15796 -0.031724 -0.3357 -0.04821 -0.40908 -0.14998 0.11031 0.092668 0.19631 
an -0.086086 0.31751 0.038453 -0.10811 0.00138 0.063405 -0.0074901 0.018535 -0.094174 0.09783 0.27874 -0.048007 0.33119 0.12036 0.093845 -0.87657 -0.16205 0.5158 0.3877 -0.42257 0.38998 0.48194 -0.18019 -0.29558 -0.28389 -0.29914 0.067139 0.34339 -0.39417 -0.064573 -0.031407 0.11218 -0.31995 -0.17597 -0.23317 0.035392 -0.095997 0.7002 0.65032 -0.12585 0.28092 -0.22598 0.42838 0.2406 0.18782 -0.14149 0.51919 0.3631 0.39329 0.24565 0.4032 0.22445 0.05626 -0.02712 -0.11246 0.20634 0.043386 -0.42749 -0.28083 -0.39256 0.16408 -0.52353 -0.14195 0.00081483 -0.28192 -0.45762 -0.13175 -0.10621 0.57682 0.080425 0.098463 -0.24817 -0.0038134 -0.063351 0.46239 0.45624 0.077767 -0.23119 0.14685 -0.15699 0.36022 -0.18019 -0.10827 -0.027355 0.72555 -0.043937 -0.56193 -0.28736 -0.29949 -0.42267 0.18351 0.35712 -0.54177 -0.10353 0.20153 -0.22655 -0.14071 0.17226 0.59272 0.1833 
actual 0.054692 0.73932 -0.49125 0.15479 0.037038 -0.40856 0.18688 -0.48506 0.077965 0.57703 0.12066 0.0096283 -0.22657 -0.13905 -0.35239 0.31 -0.072602 0.32669 0.23451 -0.21189 0.0053815 0.31213 -0.19233 -0.099167 -0.76419 -0.43343 0.6409 0.0023949 -0.43007 -0.056304 0.064059 0.061295 -0.31195 -0.23504 0.36176 -0.38547 0.14632 0.1688 -0.19598 0.18653 0.76823 -0.22085 0.62762 0.27266 0.23151 -0.1951 -0.025682 0.11157 -0.12461 -0.025081 0.35255 -0.042986 0.12856 -0.33611 -0.44621 0.13715 -0.070463 0.035625 0.1346 -0.068753 -0.34703 0.098211 0.56846 -0.024051 -0.24777 0.2581 -0.0025608 0.17446 -0.11187 -0.42554 0.011104 0.068718 -0.013476 0.068476 0.25839 0.42476 -0.18644 -0.24581 0.1048 0.50355 -0.31463 0.11723 -0.32639 0.22375 0.9606 -0.17519 -0.38821 0.016016 0.21786 -0.076519 0.034046 0.10681 0.07486 0.29867 -0.086499 0.085634 -0.089662 -0.29403 0.66424 0.52009 
meteorite 0.26346 0.30001 0.11373 0.00045438 -0.13804 -0.13828 -0.0098737 -0.071835 0.11144 0.17627 -0.13 0.033584 0.012232 -0.092352 -0.13229 -0.29126 -0.17822 0.21694 -0.20078 -0.24589 0.042272 0.32224 -0.050719 -0.11263 -0.18357 0.20259 -0.0049683 0.041727 0.029206 -0.010064 0.012781 0.12135 -0.21478 -0.2221 0.22061 0.097996 -0.11312 0.1128 -0.059418 0.11348 0.42044 -0.11378 0.30803 0.0061737 -0.089669 -0.22257 -0.065639 0.0479 -0.10224 0.24201 0.11987 0.12259 0.023155 -0.063185 -0.14847 -0.33972 0.00606 -0.19151 0.12766 0.066578 -0.086364 -0.12497 0.012105 -0.084863 -0.068597 0.12868 -0.13781 0.076959 0.096537 -0.14033 0.092917 0.14051 -0.12323 -0.018845 0.12676 0.079517 -0.12572 -0.2951 0.034173 0.019775 0.2521 -0.13669 -0.065167 0.014019 0.29898 -0.30849 -0.31454 -0.21647 -0.097016 0.20727 -0.082188 0.084241 0.00040833 -0.14846 0.074565 -0.15688 0.012095 0.060376 -0.059614 0.15007 
that 0.49212 0.51465 -0.20386 0.11914 -0.052522 0.39524 0.377 -0.0139 -0.14699 0.054803 -0.22445 -0.48629 0.10849 0.19171 -0.055285 0.055789 -0.0037857 0.11424 0.19689 -0.28047 0.11123 0.085759 -0.0088385 0.28597 -0.64215 -0.091042 0.14411 0.36299 -0.12744 -0.016807 0.043412 -0.10866 -0.1023 -0.28643 0.21659 -0.037141 0.39086 0.2879 0.028581 -0.23192 0.20521 -0.12293 -0.04929 -0.052132 -0.3297 -0.64482 -0.072632 0.25498 0.093061 0.24828 0.37459 0.069988 -0.22738 0.069693 -0.018172 -0.22788 0.092344 0.1886 0.32565 -0.25288 -0.19676 0.10084 0.21203 0.036817 0.18313 0.0060609 0.080168 0.092018 0.14373 -0.40126 0.13428 0.14241 0.11204 -0.016184 0.25874 0.19562 -0.067598 -0.40827 -0.15043 0.006389 0.37673 -0.027621 0.083344 -0.11634 0.52421 -0.14641 -0.47952 -0.19195 -0.1809 -0.0046625 -0.12811 0.25595 -0.10956 0.14579 0.037469 -0.15371 -0.023676 0.18351 0.43807 0.1901 
came 0.1825 0.25173 0.16453 -0.49964 0.11765 0.30485 0.20859 0.55835 0.17113 -0.12823 0.24506 0.099553 -0.5681 -0.23719 0.10505 -0.54266 -0.17525 0.63279 -0.44001 -0.090791 0.080189 0.55634 0.239 0.10162 -0.70088 -0.28262 0.30747 0.076026 -0.042302 -0.011374 0.28469 -0.1919 -0.093074 -0.30907 0.23088 0.43063 -0.72601 0.32097 0.52637 -0.082093 0.56459 0.0072255 0.08592 -0.24505 0.21321 -0.24241 0.33576 -0.40238 -0.54085 0.22587 0.32275 0.74775 0.015975 -0.0041216 0.055228 -0.044778 -0.0077531 -0.14693 0.16356 0.2276 -0.36592 0.16894 0.32481 0.19115 0.11286 -0.13604 0.27007 0.14761 0.20809 -0.14131 -0.15085 -0.16008 -0.27546 0.44213 0.1521 0.1517 -0.57553 -0.6711 -0.096795 -0.15018 0.040086 0.36105 -0.06187 -0.20618 0.21953 -0.47458 -0.58767 -0.11856 0.14641 -0.21034 0.0025279 0.45261 -0.27159 -0.27395 0.28567 -0.22192 0.0026493 -0.047092 0.323 -0.20465 
from 0.2621 0.35872 -0.27627 -0.0023804 0.22789 0.077668 -0.11595 -0.078016 0.11014 0.093915 -0.1441 -0.041454 -0.24143 0.19674 0.11613 -0.26621 -0.26776 0.23701 0.00056488 -0.041348 -0.039159 -0.027714 -0.12319 0.21022 -0.20348 -0.18349 0.32911 -0.019141 -0.42148 0.26861 -0.21721 0.078135 -0.51728 -0.1238 0.15193 -0.037735 -0.23802 0.19759 -0.16886 0.05784 0.26388 -0.062046 0.19787 -0.045195 -0.065325 -0.50589 0.030164 -0.2633 -0.25921 0.069966 0.012922 0.092328 -0.088057 0.19056 -0.088512 -0.41028 -0.30256 0.14864 0.16089 -0.31703 -0.16879 0.067542 -0.0075992 0.10321 -0.081749 0.14792 -0.066109 -0.15064 0.21758 -0.22426 -0.037867 0.48424 0.049588 0.15012 0.59651 0.28748 -0.238 -0.51355 0.50971 -0.042238 0.15058 0.027134 -0.28386 -0.10419 0.45631 -0.079998 -0.16558 -0.21236 0.10527 -0.10503 -0.12985 0.11042 0.12405 -0.11474 0.0083717 -0.032314 0.17733 0.36784 0.22715 0.23097 
the 0.41996 0.21605 -0.080327 -0.26061 -0.15863 -0.13652 0.28767 0.11638 0.056576 0.43225 0.019498 -0.38656 0.10507 0.06606 0.063608 -0.27746 -0.052249 0.12188 0.0013482 0.033129 0.31715 0.47338 0.039942 0.10324 -0.40719 -0.25869 0.18701 0.084403 -0.077885 -0.18532 0.010167 -0.15701 -0.24186 0.1948 0.068978 0.097353 -0.020522 0.56417 -0.11083 -0.07334 -0.056129 0.26104 0.23817 -0.40857 -0.20303 -0.50517 0.14966 -0.027515 -0.16704 -0.034194 0.4034 0.20749 0.12069 0.13007 -0.044473 -0.068655 -0.10989 -0.36585 0.07597 -0.21193 -0.23891 0.13444 0.31518 -0.33603 0.2245 0.10562 0.059261 -0.13623 0.17691 -0.40047 0.4145 0.49076 -0.17014 0.14222 0.23081 0.14495 -0.4421 -0.17212 0.15647 -0.10951 0.22567 0.14335 -0.19562 -0.083648 0.76349 -0.080705 -0.50514 0.044602 -0.12216 -0.082043 -0.041625 -0.034647 -0.19084 -0.093705 0.032966 -0.28869 -0.037883 0.13958 0.39412 0.17481 
far 0.4695 0.56683 -0.11654 0.25745 0.038046 -0.0026704 -0.199 0.28082 -0.15383 0.33608 -0.012748 -0.17551 0.14914 -0.045709 -0.28044 -0.27607 -0.22269 0.6839 0.085764 -0.074745 -0.48854 0.30442 -0.1429 -0.16655 -0.22454 -0.075586 0.20286 -0.29144 -0.049169 0.1412 0.14348 0.032322 0.21526 -0.24919 0.013961 -0.10048 0.0095596 -0.38557 0.081244 0.11514 0.32686 -0.028167 0.20349 -0.15345 -0.21909 -0.63463 0.28348 0.27288 0.055868 0.16264 -0.0042635 0.082699 -0.064402 -0.092813 0.018671 -0.1051 0.0069185 0.060568 0.091649 0.15297 -0.011896 -0.011563 0.31088 -0.3412 -0.23406 0.015282 -0.13201 -0.41259 -0.023641 -0.23374 -0.1065 0.076736 -0.088985 0.15269 -0.16115 0.40647 -0.20569 -0.28979 -0.22782 0.18265 0.24917 -0.056428 -0.31442 0.16896 0.45046 -0.024052 -0.33227 -0.32622 0.0084719 0.049673 -0.33206 0.55147 -0.082871 -0.28076 0.088993 0.10006 -0.028199 0.16897 0.24955 0.34922 
reaches 0.16128 0.89651 -0.31357 -0.085465 0.10693 0.066377 0.0067422 0.085903 0.28268 0.15411 -0.12189 0.038922 -0.081083 -0.17469 -0.23266 0.096183 -0.14799 0.22471 0.10812 -0.037342 -0.0095718 0.51203 0.13869 0.030327 -0.52312 0.22732 0.42007 -0.013234 0.18484 -0.13258 -0.18719 0.30885 -0.0058751 -0.21548 0.11873 0.18239 -0.19982 -0.19714 -0.14568 0.12818 0.6304 0.13161 0.15653 -0.041305 -0.059615 -0.35171 0.080344 0.15052 -0.36647 0.22916 -0.14975 0.081541 0.003923 0.075378 -0.086827 -0.57689 -0.1581 0.044642 -0.049342 -0.15046 0.3496 0.15866 0.11689 0.029258 -0.26472 0.23577 -0.047185 -0.31063 0.073657 -0.047784 0.023117 0.022948 0.12256 0.088303 0.11836 0.2449 -0.065814 -0.39276 -0.22962 -0.099472 0.25241 0.1463 -0.25471 -0.084714 0.4572 0.023458 -0.20655 -0.38134 0.056817 0.24552 -0.12504 0.13996 0.089139 -0.44411 -0.208 -0.078421 0.041607 0.12614 -0.11619 0.26066 
of 0.27555 0.26917 0.37348 0.029455 -0.092511 -0.20472 0.30567 -0.015369 -0.29178 0.014624 0.30856 -0.60082 -0.30181 0.16696 0.16127 0.10366 -0.32253 0.053493 0.14955 -0.010042 0.22134 0.27667 -0.34871 -0.20089 -0.19081 -0.39521 0.3299 0.072359 -0.24537 0.024744 -0.3417 -0.16283 -0.4642 0.04246 0.33441 0.057984 -0.24832 0.42502 -0.28979 0.085812 0.33004 0.23319 0.34237 -0.28192 0.075815 -0.2499 0.072126 0.084461 -0.1493 0.39986 0.57048 0.16848 0.17306 -0.026338 -0.099682 -0.17129 0.31254 -0.10927 0.034362 -0.29799 -0.087713 0.27156 0.14705 -0.36462 -0.19831 0.14951 -0.2172 -0.3588 -0.025881 -0.33298 -0.0036713 0.36872 -0.0099905 0.17545 0.029972 0.21372 -0.27685 -0.31061 0.054398 -0.023432 0.271 -0.16352 -0.017689 0.079296 0.59694 -0.36991 -0.097223 -0.19228 0.019334 -0.31277 -0.22081 0.017788 0.18549 -0.32588 -0.19302 0.22911 0.22479 0.12109 0.38118 0.1621 
space 0.24289 0.41815 -0.20334 -0.051387 0.0099916 -0.032092 0.37546 -0.076814 0.26403 0.043752 -0.1579 0.037902 -0.45215 -0.43558 -0.21568 0.17459 -0.075337 0.30467 0.14975 -0.031123 -0.087407 0.20254 0.11661 -0.17088 -0.84507 0.39743 0.31388 -0.16109 0.081963 -0.10495 -0.10203 -0.015876 -0.11542 -0.54334 -0.3028 -0.044703 -0.26739 0.080461 -0.071092 0.34518 0.49013 0.051568 0.4386 -0.34634 0.39722 -0.31631 -0.095545 0.12347 -0.19585 0.17094 0.30953 -0.11896 0.29361 0.024471 -0.52905 0.012304 0.13017 -0.14022 -0.061608 0.35427 -0.078621 0.073105 0.47819 -0.3955 -0.3421 -0.10756 -0.30581 -0.075734 0.0096234 -0.24898 0.032218 -0.078583 -0.12679 0.055867 -0.11248 0.2415 -0.21631 -0.22604 -0.29029 0.12924 0.21241 0.12818 -0.24301 -0.033602 0.67243 -0.47894 -0.18232 -0.2045 -0.17991 0.15475 -0.22731 -0.045926 -0.067535 -0.36126 0.11571 0.11673 0.097163 0.38354 0.2548 0.40431 
and -0.11439 0.16366 0.29445 0.22254 -0.17909 -0.14489 -0.053473 -0.028547 -0.087942 0.12252 -0.095903 -0.15373 -0.014292 -0.02666 -0.090059 -0.3406 -0.09631 0.14328 0.20271 -0.34389 0.10464 0.34911 -0.014863 0.18298 0.090462 0.097821 0.23071 0.04176 0.0387 -0.15596 0.10703 0.050855 -0.39544 -0.14164 0.41296 -0.11519 -0.00091454 0.27816 -0.13155 -0.027604 0.1632 -0.074517 0.22866 -0.23056 -0.17852 -0.45717 0.0070446 0.088312 0.19068 0.52418 0.057416 0.24839 -0.023935 0.12252 0.039288 0.019334 -0.022649 -0.45171 -0.021918 -0.20645 -0.20959 0.20831 0.32862 -0.047873 -0.28948 0.26281 -0.35101 -0.49487 -0.01589 -0.31289 -0.021635 0.20277 -0.11992 0.24388 -0.058794 0.27939 -0.1916 -0.019887 0.28072 -0.11197 0.25841 0.064441 -0.24477 0.11753 0.37646 0.0044199 -0.098536 -0.30868 0.15299 -0.0038976 -0.41273 -0.20374 0.16151 -0.13491 0.11298 0.1083 -0.10959 -0.05314 -0.051992 0.614 
landed 0.0035219 0.27484 -0.03565 -0.10579 -0.16421 0.024908 -0.45495 -0.20737 0.10583 0.27875 -0.30319 0.36239 -0.14888 0.024905 -0.60069 -0.39243 -0.71742 0.62815 0.45999 0.17829 -0.24769 0.47824 0.12531 -0.017692 0.19811 -0.077239 0.10276 0.0044323 0.28021 -0.38799 0.034253 0.44112 -0.2398 0.0013349 0.4399 0.045277 -0.43684 -0.072385 -0.030723 -0.072176 0.14525 -0.059369 0.0026906 -0.068096 0.065924 -0.073485 -0.010692 0.0118 0.13991 0.40017 0.079655 0.22592 0.40543 0.082342 0.2214 0.0077884 0.14867 0.080542 -0.12162 -0.23357 -0.189 0.28166 -0.23526 0.081748 -0.052983 0.26612 0.047785 -0.38656 0.91444 -0.15773 0.20341 0.32069 0.0038453 0.10661 0.095366 0.077991 -0.24432 -0.74619 0.41367 -0.41084 -0.01576 0.25447 -0.36979 -0.21907 0.43475 0.088593 -0.1184 -0.32368 0.17661 0.18656 0.077918 0.35287 -0.094786 -0.13946 -0.12303 0.023725 -0.00098193 0.097337 -0.13606 0.23735 
in 0.2173 0.37729 -0.009435 -0.20952 -0.26952 0.025746 -0.19553 -0.02313 -0.18097 -0.085322 0.11797 -0.0059514 -0.26267 0.011946 -0.3958 -0.46504 -0.13092 -0.26391 0.40169 -0.058458 0.042057 0.15949 -0.31135 0.01995 -0.095311 -0.20205 0.21636 0.18875 -0.013036 -0.037272 -0.19301 -0.32444 -0.34004 -0.24713 0.081897 0.39808 -0.079967 0.15545 -0.084569 0.32846 0.13002 -0.1101 0.51971 -0.2452 -0.084412 -0.67382 -0.18316 0.29424 -0.36999 0.12068 0.24375 0.30863 0.25547 0.051341 -0.018759 -0.30925 0.39365 0.058849 0.44072 -0.20734 -0.36363 -0.0044833 0.21831 -0.1221 0.15273 0.37327 0.083987 -0.4607 0.33959 -0.24914 0.065292 0.20236 0.072174 0.035901 0.24379 0.36655 -0.32005 -0.5698 0.19147 -0.10315 0.098406 0.1279 -0.32011 0.1098 0.025143 -0.27427 -0.24103 -0.19113 -0.12023 0.049903 -0.27583 -0.23938 0.067987 -0.063863 0.46276 -0.24467 0.19073 -0.26714 0.28868 0.44953 
Argentina 0.26862 0.5298 -0.048069 0.405 -0.096466 -0.15097 0.071409 -0.0076056 0.29607 0.1616 0.070522 -0.14763 -0.15141 0.011952 0.028618 -0.2127 -0.22611 0.045198 0.26132 -0.055533 -0.026856 0.34862 -0.078405 -0.298 -0.4444 0.32994 0.28457 0.20875 0.16364 -0.13919 0.12047 0.46909 -0.32615 -0.1419 0.046594 0.28833 -0.26836 0.27925 -0.24132 0.23395 0.55848 0.055768 0.32594 -0.10946 0.014641 -0.45857 -0.14692 0.04874 0.13724 0.27108 -0.27774 0.25228 -0.43043 0.11775 -0.12549 0.0053866 -0.089744 -0.2938 0.16371 -0.063269 -0.41404 0.15625 0.25432 -0.22638 -0.14545 0.1045 0.026772 0.070249 0.0014481 -0.37316 0.03178 0.18231 -0.049187 0.030438 -0.32871 0.054184 -0.12672 -0.24998 0.017066 -0.23563 0.042349 0.051351 0.15205 -0.026019 0.41428 -0.33481 -0.053298 -0.31755 -0.10498 0.13627 -0.11147 0.11065 -0.12442 0.064834 0.12512 -0.080956 0.022981 0.16654 0.12228 0.27494 
5,000 0.19441 0.30991 -0.27547 0.28754 -0.12802 0.36567 -0.19836 0.01493 0.010278 -0.048205 0.55915 0.32745 -0.46886 0.4213 -0.22703 -0.27187 -0.25824 0.1467 0.24673 -0.03027 -0.0022767 0.46265 -0.36606 -0.11123 -0.27503 -0.31679 -0.046495 0.064145 -0.35368 -0.056792 0.3772 0.26883 -0.46944 -0.0092686 0.45837 -0.012319 -0.1436 0.013449 -0.28409 0.15145 0.17101 0.17159 0.17129 -0.12422 -0.21852 -0.46721 0.8751 -0.031683 0.0031701 0.60989 0.25634 -0.14922 -0.078542 0.014478 -0.0983 -0.040645 -0.17087 0.1049 0.14102 -0.18384 -0.22459 0.41909 0.22985 -0.31066 -0.3624 0.26229 0.0063103 0.030833 0.1187 -0.35545 0.4066 0.2001 -0.32535 0.27934 0.08826 0.35819 -0.094157 -0.28866 -0.099286 -0.28791 0.31213 -0.13024 -0.074396 0.073802 0.12999 -0.28761 -0.10679 -0.65328 -0.13633 0.30515 -0.024032 1.1292 -0.025686 -0.30289 0.098845 0.18357 0.13293 0.027275 -0.42527 0.22693 
years 0.29338 0.53093 -0.51351 0.073669 -0.19696 -0.050172 -0.29967 -0.20059 0.24593 0.21394 0.18903 0.39326 -0.5326 0.11064 0.038405 0.22382 -0.41809 0.60736 -0.11704 -0.31734 -0.067886 0.5669 0.00017445 0.17006 -0.35364 0.030324 -0.57787 -0.43943 -0.10526 0.45952 0.36029 -0.019739 -0.23528 -0.158 -0.01908 0.44879 -0.368 -0.072909 -0.30676 -0.16576 0.41352 0.49828 0.426 -0.42292 -0.7676 -0.36791 1.0169 0.14849 -0.046832 0.22187 0.39284 -0.17967 0.6857 -0.36624 -0.045383 -0.31578 0.20553 -0.068882 0.15607 -0.081259 0.20296 0.61224 -0.044956 -0.23266 -0.61122 0.33337 -0.51077 -0.352 0.45831 0.016075 -0.40496 -0.18904 -0.25755 -0.29947 0.0027501 0.5182 0.20784 -0.45701 -0.20556 -0.22465 0.10114 0.28302 0.080647 -0.092604 0.57544 0.21331 -0.45659 -0.35986 -0.01251 -0.11141 -0.22719 0.50004 -0.35598 -0.83873 -0.0079187 -0.091125 -0.22486 0.33992 0.19717 0.61785 
ago. 0.19521 0.57001 -0.35769 -0.022948 0.0061874 0.080833 -0.15369 0.075999 0.20567 0.23 0.022429 0.24885 -0.28358 -0.0060404 -0.14937 0.062082 -0.14117 0.66276 0.16959 -0.18705 -0.28263 0.59704 -0.11858 0.098523 -0.42611 -0.31844 -0.031394 -0.20366 -0.16168 0.026257 0.23423 -0.11936 -0.18754 -0.17802 0.22864 0.25415 -0.25964 -0.10397 -0.16188 0.0076084 0.21179 -0.054934 0.22239 -0.30972 -0.19475 -0.20984 0.56197 0.19693 0.020686 0.07972 0.13885 0.10979 0.29676 0.0020588 -0.17178 -0.23302 0.065353 -0.016495 0.12608 -0.039513 0.055975 0.25019 0.10642 -0.21863 -0.40897 0.30543 -0.15158 -0.49862 0.30523 -0.28136 0.083414 0.12105 -0.21926 0.070505 0.084772 0.42572 -8.7272e-05 -0.67881 -0.14557 -0.027647 0.09304 0.28364 -0.25005 -0.1344 0.45067 -0.24443 -0.49885 -0.52152 -0.1708 0.11946 -0.18019 0.55271 -0.00025934 -0.6454 0.14249 0.042834 0.0070004 0.11214 0.199 0.36415 
After 0.2958 0.55099 0.3339 -0.080756 -0.065465 0.05061 -0.070097 0.054706 0.24303 0.31044 0.24933 0.36512 0.010723 0.34586 -0.4803 -0.54347 -0.31234 0.45492 -0.23414 -0.11665 -0.064606 0.39847 0.021337 0.20262 -0.54681 -0.12535 0.29316 0.10914 -0.028687 -0.22632 0.12239 0.15102 -0.19986 -0.27369 0.27425 0.17845 -0.087067 0.62406 0.10633 -0.27758 -0.099749 -0.18439 0.10095 -0.14216 0.13511 -0.19758 0.43715 0.13216 -0.20194 0.0087204 -0.076353 0.18416 0.085771 0.11142 0.16126 -0.36844 0.088546 -0.11466 0.39946 0.12413 -0.087941 0.12308 0.34087 -0.026461 -0.31002 0.3418 -0.080234 -0.085042 0.025447 0.042069 -0.33822 -0.12521 -0.24541 0.071559 0.23833 -0.1692 -0.24467 -1.0417 0.096445 0.27369 0.22438 0.047434 -0.34469 0.044155 0.22327 0.11005 -0.18872 -0.24317 -0.78626 -0.076105 -0.10875 0.3647 0.26622 -0.31794 0.018769 0.060859 0.17453 -0.33468 0.27517 0.23088 
an -0.086086 0.31751 0.038453 -0.10811 0.00138 0.063405 -0.0074901 0.018535 -0.094174 0.09783 0.27874 -0.048007 0.33119 0.12036 0.093845 -0.87657 -0.16205 0.5158 0.3877 -0.42257 0.38998 0.48194 -0.18019 -0.29558 -0.28389 -0.29914 0.067139 0.34339 -0.39417 -0.064573 -0.031407 0.11218 -0.31995 -0.17597 -0.23317 0.035392 -0.095997 0.7002 0.65032 -0.12585 0.28092 -0.22598 0.42838 0.2406 0.18782 -0.14149 0.51919 0.3631 0.39329 0.24565 0.4032 0.22445 0.05626 -0.02712 -0.11246 0.20634 0.043386 -0.42749 -0.28083 -0.39256 0.16408 -0.52353 -0.14195 0.00081483 -0.28192 -0.45762 -0.13175 -0.10621 0.57682 0.080425 0.098463 -0.24817 -0.0038134 -0.063351 0.46239 0.45624 0.077767 -0.23119 0.14685 -0.15699 0.36022 -0.18019 -0.10827 -0.027355 0.72555 -0.043937 -0.56193 -0.28736 -0.29949 -0.42267 0.18351 0.35712 -0.54177 -0.10353 0.20153 -0.22655 -0.14071 0.17226 0.59272 0.1833 
18-month 0.081948 0.1752 -0.17268 0.048384 0.02501 -0.029066 -0.054041 0.012685 0.18726 -0.031504 0.045509 0.19768 -0.081514 0.046343 -0.0033573 -0.23179 -0.07948 0.046673 0.023206 0.020961 -0.0072541 0.28525 0.030847 -0.11447 -0.18243 -0.057048 0.12939 0.021088 -0.061764 -0.026047 -0.031042 0.30305 -0.1655 -0.011276 0.18123 0.38734 0.032405 0.17391 -0.064254 -0.073327 0.19104 0.14973 0.19767 -0.11592 -0.06079 -0.18894 0.29841 0.063302 0.064341 0.0012076 -0.004701 0.13265 0.035746 0.099263 0.0962 -0.35101 0.068523 0.0016401 0.25087 -0.14274 -0.090517 0.27735 -0.00089879 -0.06107 -0.14316 0.13921 -0.038409 -0.099026 0.24314 -0.013599 -0.099905 0.066329 -0.080795 -0.1867 -0.10941 0.07194 -0.096957 -0.29418 -0.051407 -0.20704 0.032409 0.079234 -0.066322 -0.10427 -0.04005 0.082076 -0.17566 -0.26763 -0.089083 -0.18549 -0.14642 0.20881 -0.15038 -0.21443 0.053707 -0.022988 0.016325 0.12803 0.094393 0.30064 
closure 0.36225 0.39533 -0.015096 -0.078243 0.15384 0.015999 -0.13163 -0.041846 -0.052381 -0.050931 -0.16369 -0.11471 -0.13463 0.023937 -0.17879 -0.023929 -0.10061 0.32007 0.098225 -0.12392 0.069488 0.13417 0.001261 -0.056151 -0.33062 0.092521 0.31644 0.022156 -0.015446 -0.19426 -0.094951 0.123 0.0076781 -0.16291 0.10451 -0.1208 -0.18126 -0.045467 0.15677 0.021471 0.36892 -0.22809 0.13536 -0.04342 0.26793 -0.42299 -0.00061462 0.090456 -0.35131 0.24796 0.14298 0.060896 -0.19472 0.1102 -0.26854 -0.20373 -0.10921 -0.056265 -0.050498 -0.069579 -0.14141 -0.029087 0.28283 -0.01755 -0.10711 0.039015 -0.088293 -0.16485 0.3512 -0.20391 0.06461 0.18252 0.048168 0.17092 0.23837 0.42013 0.03551 -0.35174 -0.078399 -0.011641 0.24007 0.12532 -0.34326 0.073524 0.38559 -0.23634 -0.33922 -0.35061 -0.068917 -0.13326 -0.25663 0.28747 0.12463 -0.063795 -0.038004 -0.149 0.014107 0.26062 -0.13517 0.11946 
and -0.11439 0.16366 0.29445 0.22254 -0.17909 -0.14489 -0.053473 -0.028547 -0.087942 0.12252 -0.095903 -0.15373 -0.014292 -0.02666 -0.090059 -0.3406 -0.09631 0.14328 0.20271 -0.34389 0.10464 0.34911 -0.014863 0.18298 0.090462 0.097821 0.23071 0.04176 0.0387 -0.15596 0.10703 0.050855 -0.39544 -0.14164 0.41296 -0.11519 -0.00091454 0.27816 -0.13155 -0.027604 0.1632 -0.074517 0.22866 -0.23056 -0.17852 -0.45717 0.0070446 0.088312 0.19068 0.52418 0.057416 0.24839 -0.023935 0.12252 0.039288 0.019334 -0.022649 -0.45171 -0.021918 -0.20645 -0.20959 0.20831 0.32862 -0.047873 -0.28948 0.26281 -0.35101 -0.49487 -0.01589 -0.31289 -0.021635 0.20277 -0.11992 0.24388 -0.058794 0.27939 -0.1916 -0.019887 0.28072 -0.11197 0.25841 0.064441 -0.24477 0.11753 0.37646 0.0044199 -0.098536 -0.30868 0.15299 -0.0038976 -0.41273 -0.20374 0.16151 -0.13491 0.11298 0.1083 -0.10959 -0.05314 -0.051992 0.614 
a 0.2482 0.57079 0.18915 -0.13818 0.052547 0.050874 0.17827 -0.081433 0.03509 0.10083 -0.18808 0.089035 0.13224 0.0054343 -0.16782 -0.25745 -0.03365 0.29004 -0.24829 -0.21245 0.21058 0.43888 -0.15153 -0.049292 -0.39335 0.17329 0.27812 -0.22897 -0.048752 0.20988 0.25001 0.071344 -0.29995 -0.14052 0.1243 0.20244 0.10147 0.45074 -0.0066407 0.3063 0.2623 0.077823 0.052151 -0.00063711 0.15451 -0.3324 0.016766 -0.067125 -0.022738 -0.039371 0.28897 -0.19302 0.17963 -0.22123 0.058589 -0.11042 -0.0032999 -0.076492 0.24438 -0.21107 -0.14473 -0.12714 -0.046043 -0.18976 -0.12132 0.075593 -0.2156 -0.24094 0.27093 -0.093522 0.013468 0.17954 -0.19664 0.16596 0.02598 0.38977 -0.28417 -0.28418 -0.045558 0.040935 0.42675 -0.12641 -0.040803 -0.081703 0.31154 -0.044716 -0.54379 -0.20429 0.091612 -0.24041 -0.22323 -0.042106 -0.15457 -0.11289 0.15188 -0.33326 0.02499 -0.079881 0.3682 0.28555 
RM5.7mil 0.042059 0.060812 0.010944 -0.010897 -0.014378 -0.056282 -0.0015429 0.0055184 0.066208 0.065397 -0.050493 0.061438 -0.015818 -0.055523 -0.081426 -0.068894 -0.073628 0.034603 0.040246 0.03874 -0.058447 0.15765 -0.025148 0.01486 -0.15053 -0.065476 0.045379 -0.015951 0.012612 -0.083333 -0.0090727 0.09023 -0.14495 -0.097888 -0.0047934 0.018021 0.014417 0.03225 -0.050025 -0.017405 0.1318 0.0027835 0.084256 -0.0096187 0.01535 -0.047441 0.043447 -0.092315 0.028026 0.050738 0.039428 -0.0132 0.019387 -0.0085631 -0.063432 -0.015922 0.01746 -0.09462 -0.012274 -0.033287 -0.096484 0.075767 -0.0076691 -0.10197 -0.021218 0.057471 -0.019684 0.016121 0.12009 -0.090769 -0.050839 0.033141 -0.0030733 0.0079608 0.010113 0.089895 -0.0071245 -0.18487 0.017903 -0.04731 0.059346 0.058697 0.031602 -0.026032 0.12837 -0.076922 -0.04727 -0.056312 -0.062377 -0.038321 -0.038428 0.04425 0.0055469 -0.083896 -0.051909 0.015546 0.011469 0.057028 -0.023643 0.066375 
renovation, -0.012781 0.48527 0.20573 -0.12145 0.0357 0.23829 -0.044127 -0.16867 -0.22459 -0.082491 -0.015587 0.063123 0.086619 0.32266 0.14385 -0.226 0.1708 0.055895 -0.065397 -0.077572 0.22852 0.48271 -0.04558 -0.048442 -0.65915 -0.077963 0.11055 0.13544 -0.086351 -0.39728 0.26009 0.28265 -0.038941 -0.32168 0.33106 -0.11384 -0.24782 0.089031 -0.011192 -0.23953 0.63665 -0.21231 0.014207 -0.19808 -0.013754 -0.17338 -0.2578 0.17111 -0.109 0.21867 0.22085 0.0075222 -0.0083442 -0.38757 -0.065124 0.20604 0.00018931 -0.096906 0.055006 -0.14589 -0.17983 -0.069937 0.45747 -0.23727 -0.011964 0.27118 -0.276 0.21366 0.14224 -0.21609 -0.16316 -0.010042 -0.031634 0.25163 0.1035 0.34822 0.084955 -0.32651 -0.38011 -0.41624 -0.30147 0.30183 0.1156 -0.062002 0.53843 0.021748 -0.12045 -0.012315 -0.21651 -0.026826 -0.21766 0.28148 -0.23425 -0.037733 0.1234 0.078789 -0.26616 0.38333 0.020294 0.19229 
the 0.41996 0.21605 -0.080327 -0.26061 -0.15863 -0.13652 0.28767 0.11638 0.056576 0.43225 0.019498 -0.38656 0.10507 0.06606 0.063608 -0.27746 -0.052249 0.12188 0.0013482 0.033129 0.31715 0.47338 0.039942 0.10324 -0.40719 -0.25869 0.18701 0.084403 -0.077885 -0.18532 0.010167 -0.15701 -0.24186 0.1948 0.068978 0.097353 -0.020522 0.56417 -0.11083 -0.07334 -0.056129 0.26104 0.23817 -0.40857 -0.20303 -0.50517 0.14966 -0.027515 -0.16704 -0.034194 0.4034 0.20749 0.12069 0.13007 -0.044473 -0.068655 -0.10989 -0.36585 0.07597 -0.21193 -0.23891 0.13444 0.31518 -0.33603 0.2245 0.10562 0.059261 -0.13623 0.17691 -0.40047 0.4145 0.49076 -0.17014 0.14222 0.23081 0.14495 -0.4421 -0.17212 0.15647 -0.10951 0.22567 0.14335 -0.19562 -0.083648 0.76349 -0.080705 -0.50514 0.044602 -0.12216 -0.082043 -0.041625 -0.034647 -0.19084 -0.093705 0.032966 -0.28869 -0.037883 0.13958 0.39412 0.17481 
National 0.079311 0.74378 0.37759 0.013325 -0.15336 0.46363 -0.27838 -0.29187 -0.66442 -0.27987 0.16497 0.18505 0.36095 0.79939 0.43609 -0.9562 0.23722 0.0015208 -0.67185 0.063801 0.49053 0.89903 -0.032526 -0.8182 -0.86389 -0.45077 0.07374 0.71382 -0.27445 -0.0014342 0.2471 0.86185 -0.32731 -0.44282 0.82423 -0.21189 -0.77149 0.35397 -0.066334 -0.10343 0.43778 -0.062778 0.3547 -0.15762 0.19997 0.021598 -0.5274 0.18859 -0.13911 -0.14902 0.40099 -0.33469 0.081284 0.029757 -0.41117 0.2656 -0.24797 0.30774 -0.09509 -0.049541 -0.65666 -0.66968 0.25334 0.21198 0.049523 0.49643 -0.52669 0.37525 0.60322 -0.1602 0.332 0.19326 0.0069732 0.32612 0.0071812 0.18489 0.24815 -0.27743 -0.40283 -0.85325 -0.47811 0.3342 -0.34865 0.018506 0.27003 -0.22042 -0.23067 -0.48075 -0.07776 -0.52741 0.062837 0.22081 -0.15215 -0.030891 0.67427 -0.23075 -0.57119 0.64386 -0.3347 -0.23551 
Planetarium 0.17151 0.15927 0.0044743 0.16223 -0.025961 -0.1647 -0.019735 -0.19331 0.079004 0.13298 -0.056073 0.033182 -0.045411 0.017089 -0.22147 -0.088827 -0.030669 0.019066 0.12424 0.10608 0.028209 0.2594 -0.06404 -0.091421 -0.21308 0.030205 0.083569 -0.016038 0.010961 -0.27846 -0.039022 0.12441 -0.21144 -0.29298 0.031246 0.069043 -0.2311 -0.032293 -0.0053277 0.12799 0.41137 -0.10824 0.22046 -0.16055 0.029643 -0.33233 0.00015168 0.018644 -0.010621 0.16992 -0.07887 0.10249 -0.045117 -0.036743 -0.2186 -0.019313 -0.021948 -0.24761 -0.10372 -0.0068308 -0.27215 0.065125 0.11877 -0.27891 -0.14552 0.095431 -0.14165 -0.040393 0.29093 -0.19363 -0.021897 0.20022 -0.023978 0.19779 0.13451 0.26568 0.040572 -0.32102 0.075798 -0.19075 0.078794 0.070001 -0.087699 0.050803 0.37441 -0.22044 -0.21676 -0.21769 -0.1774 -0.024713 -0.13234 -0.011066 -0.047284 -0.12404 -0.022123 -0.028481 -0.026617 0.25514 -0.019423 0.25884 
has 0.30147 0.64668 -0.1261 -0.059511 0.010393 0.10665 -0.54979 0.10353 -0.10892 0.067702 -0.34925 -0.15102 0.078608 0.27373 -0.4652 0.24614 0.040587 0.073064 -0.028131 -0.17267 0.46769 0.37589 -0.13452 0.19217 -0.35498 0.061018 -0.15267 -0.075355 -0.28483 0.013004 0.07118 -0.25915 -0.19025 -0.13066 0.24496 -0.19093 0.32785 -0.087861 0.027276 -0.11531 0.38089 -0.35167 0.014667 0.22343 -0.17639 -0.58273 0.10987 0.14389 -0.24556 0.2104 -0.13611 -0.058763 -0.05723 -0.18881 -0.32576 -0.50621 -0.1598 -0.083771 0.052435 -0.35251 -0.085096 0.22538 -0.21065 -0.1534 -0.46009 0.15617 -0.31978 -0.23698 0.006143 -0.53647 -0.3649 0.56895 -0.087278 -0.10598 0.26068 0.52637 0.2162 -0.40027 -0.17044 -0.14329 0.35048 0.21991 0.06814 -0.22431 0.15423 0.32009 -0.4588 -0.061001 0.22438 -0.27217 -0.26067 0.28214 0.12133 0.072454 0.17901 0.17094 -0.19588 0.33058 0.44606 0.075582 
opened -0.01479 0.3222 -0.1042 -0.14981 -0.082933 0.17297 -0.15409 -0.30982 -0.014522 -0.01273 -0.35666 0.22942 -0.33177 -0.10751 -0.30776 -0.10103 -0.56585 0.70047 0.2728 -0.079804 -0.013265 0.05393 0.16308 0.0091802 -0.0060018 -0.23887 0.20485 0.16523 -0.16311 -0.21741 0.028538 0.12191 -0.34137 0.071438 0.34711 0.13017 -0.4887 -0.028216 0.061544 0.062566 0.27055 0.0038983 -0.076644 -0.35432 0.20803 -0.35149 -0.1563 0.014531 0.052006 0.12606 0.1935 0.054179 0.29568 0.45443 -0.02264 -0.23455 -0.098633 0.093051 -0.15006 -0.31962 -0.31249 0.17801 -0.033815 0.11725 -0.082268 0.13177 0.007051 -0.23525 0.73465 -0.32646 0.15317 0.33453 0.02217 0.061034 0.17139 0.22954 -0.036026 -0.35135 0.23731 -0.50841 0.08739 0.15508 -0.28144 -0.053637 0.60672 -0.17601 -0.31874 -0.5146 0.033779 0.18222 0.1149 0.55004 -0.076322 0.094087 -0.21916 -0.10356 0.20625 0.35074 -0.25537 0.095542 
its 0.30934 0.11207 -0.23526 0.16345 -0.1105 0.2575 -0.015753 -0.20891 0.028258 -0.049077 0.070689 -0.0083307 -0.21315 -0.0030049 0.0083187 0.053443 -0.039545 0.078409 -0.019621 0.087239 0.031662 0.016998 -0.31908 0.2186 -0.18852 -0.43839 0.62195 -0.44031 -0.49767 -0.22627 -0.16487 0.19025 -0.37857 -0.20966 0.031669 -0.10395 0.13224 -0.078901 0.30879 0.15655 0.91073 -0.24538 0.19509 -0.21132 -0.20353 -0.93158 0.27502 -0.18582 -0.019179 0.28539 -0.090329 0.0072141 -0.055675 0.18188 -0.28883 -0.16982 0.07315 -0.45624 -0.35044 0.054971 0.059073 0.48906 0.45778 -0.091372 -0.29902 0.071214 -0.092997 0.035675 0.47979 -0.30539 -0.090658 0.030662 -0.047632 0.18358 0.15758 0.5051 0.084573 -0.2045 0.31949 -0.13471 0.11288 0.068733 -0.44414 0.30668 0.63067 0.016619 -0.37103 -0.16059 0.17131 0.55837 -0.2246 0.097128 -0.40037 0.032198 -0.38341 0.012934 -0.195 0.25398 0.42782 0.24456 
doors 0.3764 0.57647 -0.03275 0.061167 0.1108 -0.0099198 0.059081 -0.36985 0.023637 0.26096 -0.010064 0.18202 -0.31381 0.048288 0.12229 0.12821 -0.41677 0.65872 -0.026272 -0.57908 -0.086837 0.061427 -0.042694 0.15821 -0.57967 0.11717 0.16034 -0.24828 0.25541 0.30604 0.0035131 -0.15153 -0.056092 -0.053712 -0.13801 0.09658 -0.10241 -0.080505 -0.28134 0.52596 0.3653 0.13257 0.34109 -0.054264 -0.13035 -0.63366 0.24732 0.26173 -0.15441 0.15974 0.0011265 -0.22577 -0.010212 -0.23563 -0.28336 -0.08891 0.0043925 -0.15316 -0.19001 0.11618 -0.038392 -0.32747 0.47856 -0.28915 -0.34026 0.14839 -0.39751 -0.12968 0.12712 -0.29435 0.057592 -0.08437 -0.18465 0.31514 0.15597 0.43588 0.09216 0.067529 -0.28542 -0.21412 0.16133 -0.097859 0.11019 0.28266 0.86132 -0.19766 -0.23948 -0.28856 -0.075821 0.47974 0.00066671 0.58116 0.26636 -0.30383 0.12639 -0.39611 0.045194 -0.069997 -0.03772 0.24808 
again 0.27667 0.16552 0.060763 -0.45349 -0.17143 0.03329 -0.10246 0.30104 0.19374 -0.33757 0.06152 -0.0080799 -0.34241 -0.3165 0.17468 -0.23727 -0.49765 0.27756 0.12294 -0.08061 -0.39631 -0.13255 -0.1699 0.35671 -0.5698 -0.082123 0.11943 -0.18755 0.091395 -0.26609 0.53056 0.055326 0.52378 -0.52269 0.17327 0.45161 0.071386 0.31461 -0.16195 0.089784 0.4011 -0.19768 0.26758 -0.41636 -0.44201 -0.27377 0.025999 -0.33545 -0.24367 0.1252 -0.21117 0.55769 0.29821 0.20039 -0.18032 -0.764 0.52535 0.037085 0.11991 0.11999 -0.081768 0.35044 0.17051 -0.071023 -0.2111 0.31114 0.49671 -0.40981 0.91911 -0.48416 -0.037339 0.28432 -0.28384 -0.10577 0.096879 0.67709 0.18899 -0.25552 -0.24455 -0.52067 0.34353 0.25287 0.11593 0.066563 0.32865 -0.46943 -0.31116 -0.36332 -0.11932 -0.19854 -0.24892 -0.049276 -0.16894 -0.28857 0.19227 -0.38211 -0.20365 0.11678 0.31655 0.29654 
with 0.70723 0.36143 0.1433 -0.43045 0.1583 0.083509 -0.24885 -0.27552 -0.032898 -0.030865 -0.23875 0.12803 -0.082092 -0.062059 -0.079114 -0.18678 0.20044 0.16861 0.033505 -0.47868 0.54987 -0.067484 -0.25163 -0.27663 0.047364 0.11925 -0.052507 0.015291 -0.16535 0.070811 -0.14277 -0.10128 -0.76474 -0.3774 0.17034 0.093372 -0.23231 0.17937 -0.23735 0.046656 0.30535 0.017911 0.24707 -0.079185 0.018258 -0.67999 0.27038 0.12203 0.15602 -0.047614 0.13659 0.036595 0.032469 0.11762 0.064364 -0.26637 0.24051 -0.11905 0.17133 -0.1601 0.098497 -0.12508 -0.23726 -0.24999 -0.25331 0.19787 -0.19432 -0.26505 -0.24853 -0.26723 -0.099235 0.26034 -0.034631 0.13196 0.40119 0.21169 -0.21039 -0.41231 0.27634 0.0018508 0.20696 0.26059 0.1369 -0.11953 0.36632 -0.11524 -0.13553 -0.17243 -0.17915 -0.13313 -0.30536 0.19826 -0.067848 -0.24843 0.088939 -0.056146 0.12026 0.59203 0.11911 0.49221 
a 0.2482 0.57079 0.18915 -0.13818 0.052547 0.050874 0.17827 -0.081433 0.03509 0.10083 -0.18808 0.089035 0.13224 0.0054343 -0.16782 -0.25745 -0.03365 0.29004 -0.24829 -0.21245 0.21058 0.43888 -0.15153 -0.049292 -0.39335 0.17329 0.27812 -0.22897 -0.048752 0.20988 0.25001 0.071344 -0.29995 -0.14052 0.1243 0.20244 0.10147 0.45074 -0.0066407 0.3063 0.2623 0.077823 0.052151 -0.00063711 0.15451 -0.3324 0.016766 -0.067125 -0.022738 -0.039371 0.28897 -0.19302 0.17963 -0.22123 0.058589 -0.11042 -0.0032999 -0.076492 0.24438 -0.21107 -0.14473 -0.12714 -0.046043 -0.18976 -0.12132 0.075593 -0.2156 -0.24094 0.27093 -0.093522 0.013468 0.17954 -0.19664 0.16596 0.02598 0.38977 -0.28417 -0.28418 -0.045558 0.040935 0.42675 -0.12641 -0.040803 -0.081703 0.31154 -0.044716 -0.54379 -0.20429 0.091612 -0.24041 -0.22323 -0.042106 -0.15457 -0.11289 0.15188 -0.33326 0.02499 -0.079881 0.3682 0.28555 
flashy -0.016521 0.52693 0.15864 -0.21544 -0.079152 -0.061795 -0.020503 0.1837 0.27386 -0.018437 -0.46896 -0.019049 -0.19592 -0.19274 -0.2538 -0.29081 -0.23891 0.773 0.3354 -0.26707 0.073116 0.17612 0.1254 0.16891 -0.34337 0.06563 -0.086845 0.023065 0.068199 -0.093627 0.14636 -0.076569 -0.25767 -0.43236 0.19688 0.24206 -0.19651 0.08009 -0.023571 0.15537 0.25595 0.011339 0.17149 0.016973 -0.047632 -0.066719 -0.13243 0.051486 -0.094273 0.23034 0.3747 -0.0026749 0.103 0.17971 -0.077616 -0.22262 -0.167 -0.11795 0.25764 -0.33275 -0.35011 0.0094664 0.070656 -0.21607 -0.16585 0.0033972 0.038475 -0.13278 0.11517 -0.1222 -0.24022 -0.32462 -0.079075 0.34147 0.14447 0.1902 -0.34717 -0.44204 -0.10126 -0.21788 0.054973 0.31924 0.053862 -0.23821 0.53855 -0.069529 -0.2575 -0.26893 -0.051394 -0.16966 -0.14043 0.19742 -0.12146 -0.39734 0.048974 -0.10244 0.19766 -0.17157 0.12626 0.18678 
new 0.5445 0.074483 0.28427 0.019638 0.044124 0.018927 -0.1891 -0.23014 0.055354 0.30322 0.36581 0.13025 -0.60543 0.15134 -0.32079 0.14313 0.20897 0.11167 0.11191 -0.10753 0.92163 0.51395 -0.54834 -0.399 -0.63324 0.82449 0.2861 0.20436 0.5593 0.21547 -0.16137 0.095745 -0.20286 -0.32266 -0.3773 -0.16197 -0.13246 0.23367 0.01586 0.043739 0.34906 0.041214 0.2144 0.041134 0.69523 -0.32837 0.11581 0.23094 -0.36249 0.039769 -0.041066 -0.35183 0.091094 -0.59918 -0.144 0.00030865 -0.1481 -0.25966 0.081538 -0.025708 -0.54446 0.21155 0.15442 -0.24579 -0.15667 -0.23649 -0.29997 0.26505 -0.0062386 -0.16563 0.36319 0.24445 -0.043894 0.39751 0.67434 0.61864 0.30585 -0.60906 -0.36466 -0.024716 0.67858 -0.074804 0.12046 -0.011904 0.39606 0.2127 -0.21714 0.0063657 -0.34762 -0.01839 -0.45411 0.46888 0.056745 -0.35514 -0.35402 -0.43667 0.084543 0.72263 0.19138 -0.24625 
exhibit 0.035764 0.2587 -0.092069 -0.034919 -0.11979 0.0039961 0.11754 -0.19037 0.12654 0.077529 -0.13408 -0.010632 -0.21572 -0.038475 -0.23227 0.0556 -0.024786 0.32562 0.23623 -0.078779 0.04987 0.2035 -0.014295 -0.04046 -0.46061 0.082897 0.048178 0.18638 0.070272 -0.11887 0.043171 0.010453 -0.26463 -0.24151 0.055131 0.071819 -0.096668 0.071625 -0.025926 0.050416 0.25006 -0.022705 0.079978 0.028346 0.194 -0.32729 -0.070304 0.11154 -0.041747 0.20247 0.171 0.016171 -0.067339 -0.068511 -0.18768 0.082179 -0.081275 -0.091804 0.12568 -0.039799 -0.20523 0.11012 0.16875 -0.15114 -0.0071359 -0.0012215 0.0789 -0.04024 0.11241 -0.19584 -0.088235 -0.10164 -0.066354 0.085539 0.031938 0.17329 -0.16798 -0.32918 -0.040197 -0.065677 0.04929 0.17344 0.052384 -0.12937 0.55928 -0.13229 -0.22084 -0.14109 -0.0057199 -0.079905 -0.097737 0.12067 -0.06368 -0.13187 -0.026346 0.0021024 0.16954 0.11498 0.15917 0.28397 
that 0.49212 0.51465 -0.20386 0.11914 -0.052522 0.39524 0.377 -0.0139 -0.14699 0.054803 -0.22445 -0.48629 0.10849 0.19171 -0.055285 0.055789 -0.0037857 0.11424 0.19689 -0.28047 0.11123 0.085759 -0.0088385 0.28597 -0.64215 -0.091042 0.14411 0.36299 -0.12744 -0.016807 0.043412 -0.10866 -0.1023 -0.28643 0.21659 -0.037141 0.39086 0.2879 0.028581 -0.23192 0.20521 -0.12293 -0.04929 -0.052132 -0.3297 -0.64482 -0.072632 0.25498 0.093061 0.24828 0.37459 0.069988 -0.22738 0.069693 -0.018172 -0.22788 0.092344 0.1886 0.32565 -0.25288 -0.19676 0.10084 0.21203 0.036817 0.18313 0.0060609 0.080168 0.092018 0.14373 -0.40126 0.13428 0.14241 0.11204 -0.016184 0.25874 0.19562 -0.067598 -0.40827 -0.15043 0.006389 0.37673 -0.027621 0.083344 -0.11634 0.52421 -0.14641 -0.47952 -0.19195 -0.1809 -0.0046625 -0.12811 0.25595 -0.10956 0.14579 0.037469 -0.15371 -0.023676 0.18351 0.43807 0.1901 
puts 0.19546 0.45567 0.068967 0.13026 0.13413 -0.10041 -0.046303 -0.14239 0.086881 0.33788 -0.30153 0.040521 -0.22294 -0.18847 -0.096882 -0.13761 -0.35085 0.68895 -0.072737 -0.13035 -0.041079 0.27279 0.031303 0.44512 -0.31342 -0.282 0.5565 -0.36417 -0.18677 -0.11153 -0.33938 0.012366 -0.35047 -0.30817 -0.086275 -0.094563 -0.018455 -0.096834 -0.097829 0.16911 0.69133 -0.096099 0.26838 -0.044168 -0.33687 -0.25401 -0.035764 -0.20113 -0.22008 0.075156 0.20402 0.011029 0.12739 -0.014051 -0.19664 -0.11899 0.034415 -0.2093 -0.10222 -0.076957 0.093368 0.0095842 0.37804 0.014553 -0.22996 0.13169 -0.24044 -0.0026933 0.16838 -0.32589 -0.20299 0.085482 -0.10933 0.32846 0.40965 0.27984 -0.26624 -0.41768 0.16518 -0.082192 -0.10748 0.11753 -0.19676 0.20041 0.74761 0.097264 -0.22787 -0.12239 0.041506 0.22191 -0.23344 0.016086 0.046436 -0.17234 -0.13396 -0.10657 -0.11181 0.069932 0.27353 0.15237 
visitors 0.33205 0.58635 -0.15483 0.22974 0.043555 -0.17566 0.23292 -0.40933 0.11173 0.40431 -0.012658 0.16986 -0.22982 -0.038484 0.059641 0.25485 -0.14619 0.2018 0.031149 -0.31339 -0.15599 0.11804 0.017463 0.007057 -0.67399 0.23244 0.10262 -0.2903 0.35099 0.14815 -0.12341 -0.068241 -0.25815 -0.16425 -0.15312 -0.0069924 -0.29351 -0.10256 -0.24515 0.38428 0.50391 0.071332 0.39487 -0.15741 0.1254 -0.5173 0.037702 0.18671 -0.10155 0.30552 -0.10148 -0.21037 -0.049006 -0.18773 -0.3128 -0.1189 -0.19713 -0.11715 -0.26424 -0.019557 -0.23918 -0.05188 0.4467 -0.45468 -0.43207 0.18475 -0.40243 -0.052763 -0.035894 -0.18786 -0.04971 0.14278 -0.090296 0.40087 0.22846 0.29305 0.14459 -0.00025614 -0.1688 -0.1663 0.22681 -0.11096 -0.065796 0.14318 0.79306 -0.19272 -0.32733 -0.070782 0.05515 0.58337 0.21599 0.09804 0.22708 -0.17774 -0.14043 -0.18225 0.22458 0.08964 0.063286 0.40643 
in 0.2173 0.37729 -0.009435 -0.20952 -0.26952 0.025746 -0.19553 -0.02313 -0.18097 -0.085322 0.11797 -0.0059514 -0.26267 0.011946 -0.3958 -0.46504 -0.13092 -0.26391 0.40169 -0.058458 0.042057 0.15949 -0.31135 0.01995 -0.095311 -0.20205 0.21636 0.18875 -0.013036 -0.037272 -0.19301 -0.32444 -0.34004 -0.24713 0.081897 0.39808 -0.079967 0.15545 -0.084569 0.32846 0.13002 -0.1101 0.51971 -0.2452 -0.084412 -0.67382 -0.18316 0.29424 -0.36999 0.12068 0.24375 0.30863 0.25547 0.051341 -0.018759 -0.30925 0.39365 0.058849 0.44072 -0.20734 -0.36363 -0.0044833 0.21831 -0.1221 0.15273 0.37327 0.083987 -0.4607 0.33959 -0.24914 0.065292 0.20236 0.072174 0.035901 0.24379 0.36655 -0.32005 -0.5698 0.19147 -0.10315 0.098406 0.1279 -0.32011 0.1098 0.025143 -0.27427 -0.24103 -0.19113 -0.12023 0.049903 -0.27583 -0.23938 0.067987 -0.063863 0.46276 -0.24467 0.19073 -0.26714 0.28868 0.44953 
the 0.41996 0.21605 -0.080327 -0.26061 -0.15863 -0.13652 0.28767 0.11638 0.056576 0.43225 0.019498 -0.38656 0.10507 0.06606 0.063608 -0.27746 -0.052249 0.12188 0.0013482 0.033129 0.31715 0.47338 0.039942 0.10324 -0.40719 -0.25869 0.18701 0.084403 -0.077885 -0.18532 0.010167 -0.15701 -0.24186 0.1948 0.068978 0.097353 -0.020522 0.56417 -0.11083 -0.07334 -0.056129 0.26104 0.23817 -0.40857 -0.20303 -0.50517 0.14966 -0.027515 -0.16704 -0.034194 0.4034 0.20749 0.12069 0.13007 -0.044473 -0.068655 -0.10989 -0.36585 0.07597 -0.21193 -0.23891 0.13444 0.31518 -0.33603 0.2245 0.10562 0.059261 -0.13623 0.17691 -0.40047 0.4145 0.49076 -0.17014 0.14222 0.23081 0.14495 -0.4421 -0.17212 0.15647 -0.10951 0.22567 0.14335 -0.19562 -0.083648 0.76349 -0.080705 -0.50514 0.044602 -0.12216 -0.082043 -0.041625 -0.034647 -0.19084 -0.093705 0.032966 -0.28869 -0.037883 0.13958 0.39412 0.17481 
final 0.25998 0.428 0.084652 -0.377 0.22277 -0.2328 0.13795 -0.15151 0.58829 -0.043234 -0.031548 0.14274 -0.064633 -0.54231 -0.36658 -0.25697 -0.29134 0.47963 -0.21381 -0.084437 0.55168 0.23414 0.25108 -0.39235 -0.26871 -0.28608 0.59586 -0.46136 -0.33104 -0.057012 0.16318 0.11709 0.047791 -0.33183 0.62446 0.12615 -0.2508 0.29572 0.30592 -0.0078773 0.39027 -0.079823 0.87263 0.12916 0.064194 0.27755 0.10532 -0.2532 -0.13607 -0.35506 0.18085 0.17085 0.5341 0.068833 -0.52338 -0.23466 0.013355 -0.019195 0.27357 -0.18759 -0.44442 -0.28872 0.17119 0.22883 -0.49772 0.2229 -0.33818 0.22396 0.80064 -0.16827 0.0026502 0.071659 -0.0087715 0.26402 0.17324 0.45573 -0.15382 -0.46004 0.041682 0.07532 -0.2091 0.37891 -0.69556 0.14814 0.47568 -0.54837 -0.58733 -0.64278 -0.37672 -0.12885 -0.025219 0.1135 0.17329 -0.05027 0.2523 -0.42427 -0.30062 -0.079545 0.055336 0.064918 
frontier 0.20235 0.40649 0.018017 0.14468 -0.042869 -0.17161 -0.079396 0.02097 0.16781 0.1714 -0.19073 -0.067687 -0.012992 -0.085079 -0.25406 -0.4164 -0.28692 0.16778 0.044847 -0.057999 -0.045235 0.32816 -0.062601 -0.16564 -0.22132 -0.013431 0.24495 -0.014556 -0.047465 -0.16819 0.05553 0.18946 -0.23168 -0.11517 -0.012117 0.27391 -0.22527 0.13427 -0.13567 0.17864 0.20626 -0.052706 0.32559 -0.12587 0.0043972 -0.4517 -0.033944 0.013001 0.023017 0.14082 -0.015775 0.15928 -0.14231 0.1703 -0.067026 -0.23761 0.05006 -0.27141 0.009963 -0.075621 -0.36909 -0.055932 0.097851 -0.27717 -0.14199 0.15521 -0.07864 -0.16221 0.13052 -0.22828 -0.073505 0.17336 -0.23976 0.15177 -0.12224 0.23657 -0.074622 -0.44544 0.11689 -0.22814 0.16936 0.13676 -0.084005 -0.0052807 0.28339 -0.12882 -0.15753 -0.33303 -0.25519 0.019257 -0.16424 0.043565 0.10118 -0.24281 0.11815 -0.086241 0.073371 -0.048627 0.038315 0.13918 
of 0.27555 0.26917 0.37348 0.029455 -0.092511 -0.20472 0.30567 -0.015369 -0.29178 0.014624 0.30856 -0.60082 -0.30181 0.16696 0.16127 0.10366 -0.32253 0.053493 0.14955 -0.010042 0.22134 0.27667 -0.34871 -0.20089 -0.19081 -0.39521 0.3299 0.072359 -0.24537 0.024744 -0.3417 -0.16283 -0.4642 0.04246 0.33441 0.057984 -0.24832 0.42502 -0.28979 0.085812 0.33004 0.23319 0.34237 -0.28192 0.075815 -0.2499 0.072126 0.084461 -0.1493 0.39986 0.57048 0.16848 0.17306 -0.026338 -0.099682 -0.17129 0.31254 -0.10927 0.034362 -0.29799 -0.087713 0.27156 0.14705 -0.36462 -0.19831 0.14951 -0.2172 -0.3588 -0.025881 -0.33298 -0.0036713 0.36872 -0.0099905 0.17545 0.029972 0.21372 -0.27685 -0.31061 0.054398 -0.023432 0.271 -0.16352 -0.017689 0.079296 0.59694 -0.36991 -0.097223 -0.19228 0.019334 -0.31277 -0.22081 0.017788 0.18549 -0.32588 -0.19302 0.22911 0.22479 0.12109 0.38118 0.1621 
space. 0.22659 0.56483 -0.21713 -0.090185 0.054705 -0.098285 0.26463 0.060247 0.23769 0.25773 -0.25722 -0.060766 -0.30438 -0.28683 -0.26332 0.097612 -0.064091 0.52625 0.27411 -0.28325 -0.05765 0.34314 -0.067395 -0.10315 -0.63208 0.17374 0.39488 -0.15117 0.016996 -0.14058 0.029619 -0.063202 -0.097707 -0.4537 -0.25863 -0.010616 -0.17164 0.055858 -0.02192 0.15243 0.36464 0.0019348 0.29503 -0.30358 0.096177 -0.17683 0.020198 0.17482 -0.1672 0.19269 0.25141 -0.11512 0.15067 -0.0362 -0.25796 -0.035395 0.13384 -0.13015 0.084377 0.23035 0.085458 0.022708 0.3355 -0.37944 -0.15968 -0.080279 -0.19539 -0.25597 -0.091001 -0.27624 0.023847 -0.1666 -0.11876 0.14266 -0.044061 0.39247 -0.18458 -0.27607 -0.2093 0.17534 0.097502 0.21929 -0.092177 -0.012267 0.66451 -0.38878 -0.25611 -0.30933 -0.14871 0.18758 -0.33191 0.17603 -0.034754 -0.35796 0.1959 0.066645 -0.043834 0.29395 0.2224 0.3819 
Stepping 0.56971 0.28757 0.23952 0.2382 -0.12596 0.072841 -0.37724 0.17393 -0.063786 0.22761 -0.033189 -0.18489 0.019037 0.46266 0.13465 -0.50584 -0.22741 0.51332 0.10881 -0.31922 0.44609 -0.32532 0.1566 0.11818 0.11958 0.16378 0.0050401 0.16339 0.0064866 -0.036872 -0.067169 0.42246 -0.34473 -0.25578 0.46101 -0.064144 -0.14896 0.25589 -0.10014 0.35667 0.54149 -0.082721 0.26684 0.12322 -0.24446 -0.26315 -0.12118 -0.26499 0.060838 0.01439 -0.10616 -0.016819 -0.23924 0.28113 -0.1422 -0.56189 -0.047466 -0.21909 0.18362 0.076764 -0.60548 0.045689 0.15608 -0.12822 -0.42517 0.18684 -0.13165 -0.013272 0.28034 -0.13667 0.048173 -0.051275 0.020331 0.22604 0.21155 0.10039 -0.078095 -0.30323 -0.091706 -0.52076 0.1899 -0.11787 0.13587 0.16711 0.1644 -0.25896 -0.51369 -0.25158 -0.049429 -0.24598 -0.26309 0.16994 -0.10451 -0.28015 -0.053009 -0.6611 -0.26973 0.10827 0.055651 -0.18571 
into 0.057336 0.48972 0.14742 -0.58048 -0.034369 0.25158 -0.047496 -0.078927 -0.22151 -0.029395 -0.20726 0.12416 -0.2741 0.23852 -0.050032 -0.37382 -0.24455 0.47513 0.62556 -0.39501 0.34486 -0.02733 -0.44044 0.27261 0.27252 -0.22657 0.4783 0.2417 -0.34294 0.018537 0.039784 -0.099582 -0.35909 -0.05404 0.19734 0.012918 -0.2552 0.11974 0.19479 0.53509 0.12469 -0.076128 0.39493 -0.17596 0.2615 -0.66924 -0.27719 0.13563 -0.24557 0.57104 0.14131 0.030634 -0.08464 0.071449 0.055463 -0.031281 0.29994 -0.24049 0.26387 -0.16993 -0.30932 -0.085221 0.51003 -0.32513 0.15008 0.27134 0.094265 -0.15845 0.36001 -0.10232 0.11872 -0.36436 0.13545 0.39057 0.07538 0.39378 0.031057 -0.18777 0.11225 -0.35719 0.13051 0.30652 -0.14253 -0.059751 0.56277 -0.34074 -0.19966 -0.46715 0.24717 0.17474 -0.44867 0.36212 -0.16206 -0.080071 0.090367 -0.27596 0.09291 -0.27299 -0.1204 0.028347 
the 0.41996 0.21605 -0.080327 -0.26061 -0.15863 -0.13652 0.28767 0.11638 0.056576 0.43225 0.019498 -0.38656 0.10507 0.06606 0.063608 -0.27746 -0.052249 0.12188 0.0013482 0.033129 0.31715 0.47338 0.039942 0.10324 -0.40719 -0.25869 0.18701 0.084403 -0.077885 -0.18532 0.010167 -0.15701 -0.24186 0.1948 0.068978 0.097353 -0.020522 0.56417 -0.11083 -0.07334 -0.056129 0.26104 0.23817 -0.40857 -0.20303 -0.50517 0.14966 -0.027515 -0.16704 -0.034194 0.4034 0.20749 0.12069 0.13007 -0.044473 -0.068655 -0.10989 -0.36585 0.07597 -0.21193 -0.23891 0.13444 0.31518 -0.33603 0.2245 0.10562 0.059261 -0.13623 0.17691 -0.40047 0.4145 0.49076 -0.17014 0.14222 0.23081 0.14495 -0.4421 -0.17212 0.15647 -0.10951 0.22567 0.14335 -0.19562 -0.083648 0.76349 -0.080705 -0.50514 0.044602 -0.12216 -0.082043 -0.041625 -0.034647 -0.19084 -0.093705 0.032966 -0.28869 -0.037883 0.13958 0.39412 0.17481 
new 0.5445 0.074483 0.28427 0.019638 0.044124 0.018927 -0.1891 -0.23014 0.055354 0.30322 0.36581 0.13025 -0.60543 0.15134 -0.32079 0.14313 0.20897 0.11167 0.11191 -0.10753 0.92163 0.51395 -0.54834 -0.399 -0.63324 0.82449 0.2861 0.20436 0.5593 0.21547 -0.16137 0.095745 -0.20286 -0.32266 -0.3773 -0.16197 -0.13246 0.23367 0.01586 0.043739 0.34906 0.041214 0.2144 0.041134 0.69523 -0.32837 0.11581 0.23094 -0.36249 0.039769 -0.041066 -0.35183 0.091094 -0.59918 -0.144 0.00030865 -0.1481 -0.25966 0.081538 -0.025708 -0.54446 0.21155 0.15442 -0.24579 -0.15667 -0.23649 -0.29997 0.26505 -0.0062386 -0.16563 0.36319 0.24445 -0.043894 0.39751 0.67434 0.61864 0.30585 -0.60906 -0.36466 -0.024716 0.67858 -0.074804 0.12046 -0.011904 0.39606 0.2127 -0.21714 0.0063657 -0.34762 -0.01839 -0.45411 0.46888 0.056745 -0.35514 -0.35402 -0.43667 0.084543 0.72263 0.19138 -0.24625 
foyer 0.050344 0.15127 0.12507 0.11769 0.022336 0.079516 -0.083375 -0.10771 0.16679 0.058395 -0.14089 0.0056895 0.013666 0.010541 -0.59025 -0.31062 -0.28633 0.26878 0.14026 -0.090089 0.14987 0.26216 0.04679 0.050578 -0.24901 0.073935 0.1886 -0.18373 -0.045608 -0.19595 0.26901 0.20667 -0.35225 -0.10295 0.1418 0.083515 0.045157 0.16362 0.078092 -0.011302 0.062516 -0.21679 0.14294 0.10908 0.05797 -0.29224 0.14598 0.065746 -0.014278 0.10356 -0.0085597 0.065441 0.07213 -0.013773 -0.054118 -0.064869 -0.0091625 -0.17428 0.18899 -0.22106 -0.34498 -0.031668 0.09612 -0.045169 -0.13643 0.064067 -0.23476 0.046698 0.23009 -0.14863 -0.067245 0.1553 -0.27244 0.13326 0.12069 0.007257 -0.062249 -0.61822 0.15252 -0.079241 0.1253 0.15837 -0.072896 -0.049212 0.34973 -0.11515 -0.25204 -0.2999 -0.35737 0.090624 -0.053367 0.12155 0.14511 -0.15337 0.10719 0.018146 -0.041143 -0.16893 0.14038 0.1278 
of 0.27555 0.26917 0.37348 0.029455 -0.092511 -0.20472 0.30567 -0.015369 -0.29178 0.014624 0.30856 -0.60082 -0.30181 0.16696 0.16127 0.10366 -0.32253 0.053493 0.14955 -0.010042 0.22134 0.27667 -0.34871 -0.20089 -0.19081 -0.39521 0.3299 0.072359 -0.24537 0.024744 -0.3417 -0.16283 -0.4642 0.04246 0.33441 0.057984 -0.24832 0.42502 -0.28979 0.085812 0.33004 0.23319 0.34237 -0.28192 0.075815 -0.2499 0.072126 0.084461 -0.1493 0.39986 0.57048 0.16848 0.17306 -0.026338 -0.099682 -0.17129 0.31254 -0.10927 0.034362 -0.29799 -0.087713 0.27156 0.14705 -0.36462 -0.19831 0.14951 -0.2172 -0.3588 -0.025881 -0.33298 -0.0036713 0.36872 -0.0099905 0.17545 0.029972 0.21372 -0.27685 -0.31061 0.054398 -0.023432 0.271 -0.16352 -0.017689 0.079296 0.59694 -0.36991 -0.097223 -0.19228 0.019334 -0.31277 -0.22081 0.017788 0.18549 -0.32588 -0.19302 0.22911 0.22479 0.12109 0.38118 0.1621 
the 0.41996 0.21605 -0.080327 -0.26061 -0.15863 -0.13652 0.28767 0.11638 0.056576 0.43225 0.019498 -0.38656 0.10507 0.06606 0.063608 -0.27746 -0.052249 0.12188 0.0013482 0.033129 0.31715 0.47338 0.039942 0.10324 -0.40719 -0.25869 0.18701 0.084403 -0.077885 -0.18532 0.010167 -0.15701 -0.24186 0.1948 0.068978 0.097353 -0.020522 0.56417 -0.11083 -0.07334 -0.056129 0.26104 0.23817 -0.40857 -0.20303 -0.50517 0.14966 -0.027515 -0.16704 -0.034194 0.4034 0.20749 0.12069 0.13007 -0.044473 -0.068655 -0.10989 -0.36585 0.07597 -0.21193 -0.23891 0.13444 0.31518 -0.33603 0.2245 0.10562 0.059261 -0.13623 0.17691 -0.40047 0.4145 0.49076 -0.17014 0.14222 0.23081 0.14495 -0.4421 -0.17212 0.15647 -0.10951 0.22567 0.14335 -0.19562 -0.083648 0.76349 -0.080705 -0.50514 0.044602 -0.12216 -0.082043 -0.041625 -0.034647 -0.19084 -0.093705 0.032966 -0.28869 -0.037883 0.13958 0.39412 0.17481 
planetarium 0.33594 0.18308 0.044383 0.043624 0.014675 -0.04608 -0.080583 -0.13996 0.082781 0.085612 -0.13368 0.060797 -0.12503 -0.10729 -0.265 -0.080321 0.0017423 0.19793 0.12494 0.17645 0.066221 0.072323 0.0069324 -0.015696 -0.40956 0.075416 0.19491 -0.086266 0.057757 -0.27704 -0.065737 0.061057 -0.21738 -0.45192 -0.0026332 0.027766 -0.18387 -0.059912 0.17477 0.17438 0.49092 -0.16344 0.22876 -0.21623 0.14838 -0.4333 -0.022493 -0.024261 -0.068308 0.15416 -0.037643 0.11419 0.06596 0.036288 -0.20288 0.00088474 0.019882 -0.19811 -0.14913 0.013868 -0.31446 0.047337 0.19256 -0.2393 -0.14714 -0.007493 -0.11231 -0.01347 0.32012 -0.22047 0.010331 0.11399 0.082991 0.19418 0.23656 0.29092 -0.0036659 -0.26789 -0.057363 -0.19127 0.053794 0.095171 -0.17159 0.045704 0.40449 -0.25751 -0.16074 -0.1719 -0.20205 0.0038714 -0.17522 0.033364 -0.06258 -0.1786 -0.026461 -0.034671 -0.039698 0.33005 0.07881 0.21888 
is 0.34814 0.36639 0.27366 0.13312 -0.06341 0.12484 -0.023814 0.22776 -0.28821 0.33559 -0.29818 -0.21021 0.49904 0.0083559 -0.32915 0.14607 -0.12683 -0.2091 0.14122 -0.15381 0.19544 -0.079966 0.20244 -0.20787 -0.43247 -0.16354 0.45384 -0.024977 -0.061577 -0.015447 0.063533 0.217 0.13994 -0.18326 0.33231 0.12834 0.002416 -0.094216 -0.11226 0.065024 0.494 -0.34068 -0.11789 -0.3212 -0.068217 -0.32162 -0.096706 0.19075 -0.11408 0.40155 0.27444 -0.14689 -0.045848 -0.054053 0.18128 0.12092 0.1675 0.12414 0.091601 -0.0009308 -0.24351 -0.17134 0.34437 -0.25872 -0.11119 -0.00046918 -0.13463 -0.031452 0.18147 -0.59932 -0.39444 -0.0010935 0.10265 0.254 0.024936 0.55454 -0.13383 -0.24783 -0.084956 -0.097203 -0.13351 0.096959 -0.19784 -0.12692 0.21475 -0.31084 -0.71655 -0.32644 0.13776 -0.042099 -0.063828 0.079803 -0.30264 -0.25939 -0.090308 -0.03286 -0.065285 0.24207 0.50153 0.40734 
like 0.50214 0.35591 0.1039 0.23564 -0.012804 -0.26867 0.15715 -0.053947 0.10295 0.43054 -0.44731 -0.23937 0.029837 -0.30691 -0.037063 -0.12774 -0.099382 0.48978 0.42017 -0.35377 -0.39453 -0.085435 -0.29412 -0.024913 -0.42599 0.21128 0.16249 0.16273 0.24382 0.21564 -0.20176 0.075318 -0.20916 -0.52872 -0.28508 -0.20909 0.07831 -0.11153 -0.045691 -0.14001 0.3806 0.12561 0.24739 -0.10207 -0.020204 -0.21991 -0.15089 0.4459 -0.25929 0.55339 -0.012702 0.13836 -0.14812 -0.031468 -0.14047 -0.086843 0.13024 -0.17589 -0.049147 0.17507 -0.22505 -0.10632 0.29452 -0.20412 -0.056808 0.2799 -0.19851 -0.27486 0.11283 -0.51112 0.13548 -0.10038 0.14822 0.23494 0.22122 0.12914 -0.029537 -0.15953 0.19334 0.10792 -0.0069155 -0.02843 -0.2399 0.14064 0.62299 -0.44245 -0.022866 -0.16216 0.1306 -0.044719 -0.15252 0.044048 0.16723 -0.25138 0.111 -0.4171 -0.102 0.011952 0.4222 0.25057 
