minister 0.30519 -0.5477 0.04309 0.37666 0.56743 0.21978 0.18645 -0.41029 -0.41483 -0.093993 0.16874 -0.13205 -0.78345 0.11685 -0.30306 0.45575 -0.49805 -0.37103 0.38624 -0.11461 0.071479 -0.068803 -0.13111 -0.82651 0.32997 0.47625 0.30892 -0.20798 0.66411 0.31258 0.020515 0.67052 -0.48706 -0.50583 -0.52806 -0.0059886 0.82367 -0.49501 -0.50292 -0.31087 -0.68827 0.45835 -0.25731 -0.10264 0.36165 -0.26131 0.59771 -1.143 0.18168 0.22311 0.24369 -0.058025 -0.15066 -0.78209 -0.28711 -0.35634 0.43924 -0.11318 -0.30593 -0.47446 0.017717 -0.46981 -0.32167 -0.06415 -0.59031 0.82008 0.40632 0.011717 0.37978 -0.2221 -0.25988 0.067798 -0.66083 -0.0059882 -0.40964 -0.38101 0.40389 -0.093317 0.70131 0.24839 0.18066 -0.60308 0.18472 -0.78705 0.099489 -0.10773 -0.26809 0.55808 0.34746 0.31061 0.11591 -0.30714 0.34515 -0.56507 -0.0054114 -1.201 0.50634 -0.11575 0.36236 -0.025125 
dying -0.51932 -0.6887 0.19276 -0.13585 0.082444 -0.29443 0.43161 0.53228 0.49506 -0.051113 -0.13926 0.21433 -0.17189 -0.01126 -0.41077 0.51843 0.17201 0.067742 0.26661 -0.2128 0.37383 -0.0070445 0.082248 -0.15694 0.13409 0.067007 0.43247 0.051122 -0.65969 0.062042 -0.28427 -0.09497 -0.63659 0.067621 -0.0018067 -0.16561 0.27118 0.48945 0.18288 -0.014829 -0.30798 -0.2669 -0.34247 -0.00023311 -0.031139 0.29503 0.050604 0.10621 -0.3242 0.15741 0.51507 0.1051 -0.67816 -0.49048 -0.075538 -0.32763 0.24012 -0.10614 0.14217 0.33642 -0.067283 0.028101 0.50448 -0.37699 -0.34577 -0.012633 -0.015109 0.4752 0.10703 0.20712 -0.099637 -0.047496 -0.057984 0.66138 0.015219 -0.45471 -0.080747 0.30008 0.55736 0.14425 -0.025296 -0.4384 0.089677 -0.21719 -0.17202 -0.011384 0.15248 0.30856 -0.0060343 0.47899 5.0498e-05 -0.84806 -0.057068 -0.2678 0.57501 -0.77778 -0.50354 0.0062182 0.40759 0.059135 
now 0.0012821 -0.11251 -0.21258 -0.15404 -0.071111 0.23296 0.002644 -0.20385 -0.082188 -0.21108 0.27371 -0.055329 0.030259 -0.58029 -0.066311 0.15976 -0.073585 0.016703 0.40688 -0.36667 0.28699 -0.1022 -0.29697 -0.18524 0.25628 0.11935 0.053989 -0.33031 -0.038919 -0.083801 -0.37224 0.16216 -0.30039 0.20002 -0.034225 -0.082078 -0.067908 0.087213 -0.13323 0.059342 -0.10804 0.14414 -0.14013 0.12594 0.32873 0.12243 0.17195 -0.16975 -0.11323 0.21808 -0.031744 -0.03251 0.036949 -0.16952 -0.051126 -0.12562 -0.092984 0.041184 -0.26495 -0.17126 0.058613 -0.30853 0.31472 -0.39089 0.14705 -0.038842 0.23838 0.12051 0.16559 -0.26167 0.062562 -0.19093 -0.2965 0.27122 0.062196 0.090616 -0.17071 0.065664 0.23342 -0.027385 -0.070399 -0.21987 -0.29686 -0.27697 -0.13461 -0.06433 0.029942 0.023271 0.020463 -0.052957 0.10588 -0.36885 0.25426 -0.25984 0.17314 -0.50494 0.058115 0.12429 -0.034336 0.067913 
sd 0.0010037 -0.0016385 -0.00055159 -0.0038639 0.0023327 -0.0018118 0.00045538 0.0017559 0.0039159 0.0017035 0.0021815 -0.00045466 -0.0030892 0.0011519 0.0017816 0.0013646 0.0023395 -0.00086858 0.00023354 -0.0048759 -0.0014964 -0.00030413 -0.00076938 0.0021169 -0.00092279 0.00095436 0.00048071 0.00080917 -0.0027467 0.0037988 -0.0037297 0.0012633 -0.0050213 0.00013988 -0.0024173 -0.00021921 0.00018275 0.0040702 0.0042319 -0.00062469 0.00085937 0.00084863 -0.00071801 -0.0018323 0.004166 4.7809e-05 0.0016115 0.0013885 0.00028308 -0.0038914 0.00098042 -0.0016987 0.00079478 0.0002829 0.0010501 -0.0052086 -0.0019397 0.0010832 0.0011179 -0.0019871 0.0010751 -0.0025801 -0.0020832 0.0025633 0.002196 -0.00027313 0.00020016 -0.0017529 -0.0022748 0.0019349 -0.0025022 0.0056891 0.00073677 -0.00090532 -0.0032807 -0.0019727 -0.0015176 0.0021569 -0.00030512 0.0057927 0.0029832 -0.0003164 -0.0053657 0.0006859 -0.0031342 0.00049725 0.002981 -0.00080784 -0.00030457 -0.00021668 0.0028793 0.001235 0.00011277 -0.00055444 0.0014646 -0.00032758 -0.0044696 -0.0027433 0.0021109 -0.00090311 
k -0.0018589 0.0015357 0.0045331 -0.0098442 -0.0080554 -0.0019792 -0.004158 0.0040267 -0.0012046 -0.0021124 0.0073713 0.0067052 -0.0090535 -0.0037457 -0.00043448 -0.003339 0.0020067 -0.0010452 0.0073992 0.0077782 -0.0039907 0.0079505 -0.0053277 -0.001086 -0.0063931 0.00074663 0.0098392 0.0012186 -0.0017724 0.0025862 -0.0092691 0.0038395 -0.00097314 0.0011557 0.0052155 -0.0037965 -0.0069378 0.0061323 -0.0014866 0.00067582 -0.00063798 -0.0018077 0.0029452 -0.0073513 -0.0055634 -0.0049844 0.0014058 -0.0053265 0.0028648 -0.0083851 0.0040037 -0.0035842 0.0070028 -0.0073596 0.0018405 0.0094269 -0.0040591 0.00025869 -0.003766 0.0048176 0.005334 -0.00080765 -0.0075726 -0.0069867 0.0062255 -0.0064702 -0.0028249 0.0087892 0.0053584 -0.0088327 -0.005324 -0.0032272 0.0095232 -0.0020887 0.005871 -0.0025454 -1.6894e-05 -0.0021877 -0.0045783 -0.0043863 0.006621 0.0023201 -0.0095926 -0.0091094 -0.0002062 0.009997 -0.0079448 0.0017827 -0.0077137 -0.0015883 0.0040716 0.0071442 0.0044477 0.0082904 -0.0042331 -0.0087784 -0.0035854 0.003517 0.00034412 -0.00010391 
alsdlkalsndkas\ -0.019 -0.040593 -0.053299 0.027236 0.044916 0.053594 0.029119 0.055224 0.013639 -0.10124 0.006643 -0.040436 -0.014613 -0.053906 0.061538 0.039814 -0.0018544 0.0084747 0.021686 -0.035069 0.011495 0.035079 -0.01076 -0.012796 0.059964 0.024609 -0.0054966 0.004696 0.019465 0.063532 -0.058697 -0.025475 -0.068637 0.010424 0.046625 0.0014006 0.0045022 0.024462 -0.0040511 0.033284 -0.029164 0.035823 -0.011278 0.049733 0.0685 0.0033128 0.026051 -0.014191 -0.057626 0.012427 0.0033316 -0.022735 -0.032842 -0.10245 -0.021128 -0.015059 0.03554 -0.027891 -0.035799 -0.023332 -0.016241 -0.066455 -0.025014 -0.001035 0.018361 -0.014668 0.051316 -0.027415 0.027729 0.0051654 0.025231 -0.03998 -0.044776 0.0063425 -0.023174 0.021773 -0.024229 -0.029986 0.035915 -0.00058129 -0.0079324 -0.026433 -0.074385 -0.032367 -0.0082588 -0.025855 0.078368 0.040472 -0.011721 0.034859 -0.011653 -0.022152 0.037341 -0.087002 0.0047878 -0.041125 0.014666 0.012445 0.045124 0.063244 
ds 0.16284 -0.31998 -0.41665 -0.10197 -0.14805 0.45848 0.13697 0.32418 0.22714 -0.54634 0.31357 -0.14853 0.059559 -0.14218 0.36069 0.1199 0.2521 0.10714 -0.067405 -0.54819 0.18531 -0.099184 0.19496 -0.16629 0.10808 0.059707 0.10784 -0.080062 0.071829 0.048713 -0.74391 0.14516 -0.6587 0.23477 -0.022308 -0.10113 -0.06502 0.37454 0.3522 0.49587 -0.58974 0.21101 -0.091817 0.24015 0.52478 -0.23388 0.13547 -0.033308 -0.30024 0.41675 0.1534 -0.16515 -0.31728 -0.41059 -0.045273 -0.099302 0.12319 -0.4522 -0.26178 -0.024346 -0.056005 -0.3693 -0.20741 -0.29103 0.2986 -0.21165 0.24064 -0.22956 0.0016206 0.017702 0.1752 -0.17432 0.1687 0.032451 0.15374 0.25272 -0.086082 -0.12847 0.39444 -0.088046 -0.018386 -0.29166 -0.21319 -0.064207 -0.18081 -0.17542 0.32108 -0.003645 -0.29706 0.053823 0.45573 -0.53012 0.26298 -0.81681 -0.010726 -0.70082 0.28858 0.32245 0.3954 0.16118 
